7.82637e-06
0.131538
0.755605
0.45865
0.532767
0.218959
0.0470446
0.678865
0.679296
0.934693
0.383502
0.519416
0.830965
0.0345721
0.0534616
0.5297
0.671149
0.00769819
0.383416
0.0668422
0.417486
0.686773
0.588977
0.930436
0.846167
0.526929
0.0919649
0.653919
0.415999
0.701191
0.910321
0.762198
0.262453
0.0474645
0.736082
0.328234
0.632639
0.75641
0.991037
0.365339
0.247039
0.98255
0.72266
0.753356
0.651519
0.0726859
0.631635
0.884707
0.27271
0.436411
0.766495
0.477732
0.237774
0.274907
0.359265
0.166507
0.486517
0.897656
0.909208
0.0605643
0.904653
0.504523
0.516292
0.319033
0.986642
0.493977
0.266145
0.0907329
0.947764
0.0737491
0.500707
0.384142
0.277082
0.913817
0.529747
0.464446
0.94098
0.050084
0.761514
0.770205
0.827817
0.125365
0.0158677
0.688455
0.868247
0.629543
0.736225
0.725412
0.999458
0.888572
0.233195
0.306322
0.351015
0.513274
0.591114
0.845982
0.412081
0.841511
0.269317
0.415395
0.537304
0.467917
0.287212
0.178328
0.15372
0.571655
0.802406
0.0330538
0.53445
0.49848
0.955361
0.748293
0.554584
0.890737
0.624849
0.84204
0.159768
0.212752
0.71471
0.130427
0.0909903
0.274588
0.0029996
0.414293
0.0268763
0.70982
0.937897
0.239911
0.180896
0.31754
0.886991
0.652059
0.150335
0.681346
0.385815
0.387725
0.499741
0.147533
0.587187
0.845576
0.590109
0.955409
0.556146
0.148152
0.983305
0.408767
0.14182
0.564899
0.252126
0.488515
0.464031
0.961095
0.126031
0.199757
0.31925
0.629269
0.126712
0.651254
0.621634
0.803073
0.247842
0.476432
0.389314
0.20325
0.0283752
0.901673
0.426497
0.142021
0.947487
0.410313
0.131189
0.885648
0.0921736
0.162199
0.0710636
0.365339
0.253057
0.135109
0.783153
0.455307
0.349524
0.4523
0.808945
0.931674
0.651646
0.215248
0.679592
0.908922
0.250126
0.86086
0.471262
0.505956
0.600394
0.817561
0.755844
0.462245
0.951367
0.632739
0.43933
0.824697
0.688981
0.702207
0.987145
0.954415
0.85127
0.289316
0.537426
0.514435
0.103434
0.414028
0.576717
0.876566
0.440039
0.729748
0.869264
0.715642
0.80072
0.706535
0.741716
0.0190924
0.886031
0.524987
0.463323
0.0651939
0.713422
0.488943
0.667679
0.682049
0.199555
0.916634
0.865883
0.890019
0.543948
0.139195
0.450347
0.989362
0.215532
0.446023
0.315732
0.514659
0.881504
0.439726
0.467532
0.80665
0.365158
0.211519
0.999117
0.153604
0.630488
0.61635
0.000595042
0.000879
0.773352
0.727335
0.319178
0.417724
0.682494
0.680562
0.205262
0.83642
0.708921
0.828708
0.0945488
0.0817376
0.764005
0.629572
0.213852
0.213547
0.0810608
0.388823
0.95216
0.947545
0.389854
0.269215
0.692169
0.284035
0.776866
0.783865
0.42246
0.282156
0.193967
0.0113162
0.191824
0.983236
0.244054
0.819726
0.136455
0.398144
0.60101
0.17688
0.828355
0.157731
0.987937
0.257169
0.233599
0.101637
0.219411
0.634717
0.696007
0.79477
0.696243
0.75294
0.669521
0.63343
0.0564407
0.598217
0.227008
0.318778
0.699834
0.117437
0.762571
0.526123
0.553911
0.587989
0.329666
0.702989
0.143045
0.161688
0.485325
0.860226
0.813266
0.556836
0.738997
0.316007
0.135332
0.528548
0.310739
0.588119
0.518084
0.430848
0.258843
0.370226
0.393018
0.446866
0.475896
0.387831
0.279293
0.0782632
0.369742
0.253922
0.671784
0.676237
0.513936
0.728608
0.720768
0.944753
0.460697
0.940163
0.32156
0.460434
0.517145
0.661355
0.401833
0.60564
0.986503
0.150394
0.670098
0.343818
0.54171
0.522808
0.556704
-0.485686
0.254979
0.434814
0.143226
1.12595
0.375704
0.520363
-0.153618
0.598518
0.915153
0.0784953
1.06402
-0.417054
-0.324449
0.471051
0.26303
0.0775514
0.808467
0.463858
0.517809
0.969657
0.679738
0.902274
-0.245038
-0.347373
0.201465
-0.271435
1.16352
0.684834
-0.906338
-1.38033
0.418931
-1.36352
-0.561108
1.21154
0.626658
-1.12905
-0.90185
-1.32549
0.963683
-0.392552
0.991288
-1.21536
-1.07971
-0.102884
-1.04329
-0.360783
0.878077
-0.65349
-2.36549
0.0094991
1.52381
1.07293
-1.74259
-2.02673
-1.06587
-1.64999
5.19975
-1.46083
-1.16522
-0.669268
0.484553
-0.497177
0.153086
0.414469
0.643085
0.0677047
0.233878
-0.539319
0.785452
0.116011
-0.174459
-0.0848828
-0.0762729
0.150066
-0.128942
0.0889845
0.0403827
0.118684
-0.912261
-0.0335708
0.820096
0.5052
-1.13498
-1.33758
0.425576
-0.970073
2.89451
-0.809695
0.556952
0.0781381
0.554003
0.911647
0.3447
0.849108
0.989133
0.227098
0.232288
0.37779
0.817393
0.888949
0.234922
0.71596
0.669079
0.458035
0.222573
0.667988
0.102522
0.194105
0.0516576
0.514786
0.0119445
0.17468
0.550586
0.371071
0.0596824
0.63915
0.481276
0.776881
0.123637
0.973346
0.0296353
0.0803531
0.494245
0.769437
0.93403
0.250155
0.359658
0.769114
0.499955
0.749252
0.671903
0.681666
0.75677
0.0363676
0.230572
0.221667
0.562602
0.652622
0.61661
0.371466
0.224801
0.233691
0.653012
0.165928
0.744104
0.159758
0.0476386
0.661994
0.124945
0.949157
0.48418
0.621046
0.914025
0.0179445
0.593546
0.721872
0.496582
0.0536944
0.441633
0.519175
0.771944
0.0653563
0.44279
0.97718
0.467741
0.329056
0.44593
0.743274
0.205341
0.171379
0.37252
0.939725
0.964851
0.254957
0.0703352
0.123849
0.526338
0.160083
0.517707
0.105185
0.841576
0.368562
0.42389
0.327228
0.713547
0.576776
0.871884
0.758246
0.836598
0.699791
0.38906
0.935242
0.605603
0.362084
0.539505
0.455072
0.401692
0.24044
0.0830857
0.421579
0.47238
0.289766
0.104969
0.216386
0.802019
0.527439
0.66882
0.863643
0.24375
0.711564
0.263663
0.382822
0.0810055
0.459763
0.232867
0.795353
0.491343
0.00322878
0.266119
0.664689
0.425191
0.186825
0.963476
0.134039
0.795856
0.946045
0.171155
0.606001
0.0638036
0.347492
0.292468
0.509658
0.825837
0.834338
0.726443
0.329434
0.802084
0.631763
0.0453407
0.0414204
0.153315
0.767065
0.0617314
0.519303
0.92915
0.220516
0.204563
0.0889927
0.699691
0.706461
0.494631
0.261779
0.711571
0.378366
0.200645
0.232608
0.436096
0.469498
0.861187
0.977238
0.444519
0.0342431
0.523772
0.0316388
0.753174
0.591588
0.822891
0.329579
0.232078
0.536528
0.430618
0.403581
0.987325
0.96691
0.850531
0.867514
0.311605
0.14839
0.997599
0.639523
0.468075
0.931915
0.690773
0.815407
0.541535
0.572807
0.159216
0.94525
0.821334
0.155414
0.0410748
0.343613
0.110019
0.0965383
0.518773
0.022405
0.561484
0.856876
0.516908
0.674525
0.737175
0.69846
0.0227995
0.191984
0.670991
0.345872
0.0662903
0.14071
0.921117
0.221656
0.380115
0.586016
0.167313
0.0263397
0.691126
0.762344
0.713695
0.0773243
0.589809
0.925503
0.929698
0.430446
0.50597
0.831256
0.919236
0.601638
0.723836
0.519337
0.490817
0.161419
0.976116
0.57436
0.273251
0.531427
0.698558
0.667049
0.0974325
0.548736
0.610738
0.667965
0.495125
0.571583
0.588888
0.441313
0.151217
0.502275
0.731364
0.0316565
0.0516167
0.522063
0.320642
0.0350595
0.245142
0.107181
0.382969
0.551829
0.597169
0.611111
0.935252
0.77203
0.513148
0.486681
0.650128
0.696996
0.407538
0.48685
0.479783
0.71045
0.534199
0.276647
0.605538
0.280104
0.703369
0.53049
0.938254
0.235403
0.413494
0.597476
0.783002
0.920252
0.681491
0.821177
0.527413
0.23027
0.143684
0.899521
0.251422
0.651515
0.00481561
0.935936
0.275353
0.858766
0.278929
0.952431
0.50682
0.12295
0.416475
0.702471
0.436491
0.107739
0.766175
0.0998656
0.441265
0.344576
0.297064
0.757621
0.33851
0.330758
0.0556062
0.573183
0.485286
0.202482
0.114475
0.974348
0.864609
0.491841
0.367395
0.804912
0.162204
0.15958
0.0577229
0.149251
0.468101
0.380608
0.883705
0.424134
0.412248
0.651295
0.308327
0.0601425
0.814416
0.897657
0.919492
0.901218
0.770046
0.170796
0.572442
0.0314038
0.803268
0.522215
0.861622
0.277198
0.869494
0.586862
0.389172
0.811895
0.52567
0.939871
0.420038
0.579863
0.749145
0.880784
0.338085
0.189549
0.743126
0.718919
0.879162
0.072869
0.710114
0.87906
0.359379
0.0898531
0.161029
0.416796
0.0964286
0.674693
0.562612
0.813047
0.878192
0.76936
0.635205
0.896524
0.878413
0.486471
0.113071
0.377485
0.38262
0.687578
0.12174
0.0768218
0.143302
0.477641
0.708588
0.238019
0.390967
0.975881
0.628767
0.681199
0.908691
0.3624
0.859213
0.794278
0.428873
0.073511
0.498631
0.483873
0.450735
0.499657
0.740759
0.932843
0.300122
0.146196
0.110018
0.080322
0.972476
0.408177
0.23841
0.96316
0.833474
0.19808
0.129482
0.196307
0.339119
0.575679
0.440268
0.585675
0.432877
0.368203
0.382317
0.600133
0.429473
0.148787
0.670197
0.995401
0.698066
0.40274
0.849278
0.819527
0.793382
0.374249
0.00960789
0.479779
0.639058
0.646495
0.644898
0.799035
0.377364
0.357672
0.3895
0.334307
0.693589
0.144897
0.291525
0.666856
0.854365
0.314699
0.144142
0.602249
0.0055882
0.92083
0.381955
0.516531
0.344456
0.264133
0.291
0.833648
0.124391
0.634619
0.0486975
0.458046
0.376817
0.155873
0.755856
0.665973
0.0115306
0.794881
0.560914
0.288654
0.41556
0.320611
0.51459
0.719155
0.842044
0.231895
0.465007
0.373359
0.0500431
0.0738503
0.202449
0.566183
0.831524
0.422552
0.839549
0.293043
0.181196
0.357526
0.93411
0.589419
0.36904
0.463059
0.62783
0.944452
0.405786
0.0504816
0.44485
0.595927
0.748311
0.864172
0.131755
0.110426
0.666161
0.85591
0.592683
0.674099
0.995593
0.0215603
0.903653
0.200344
0.974411
0.521049
0.297719
0.706549
0.5908
0.855283
0.823969
0.64211
0.789317
0.63988
0.336982
0.543885
0.69501
0.328982
0.865302
0.466533
0.924225
0.290283
0.991405
0.07044
0.405073
0.84148
0.964951
0.384609
0.546897
0.597451
0.879531
0.919037
0.591834
0.252165
0.970718
0.578473
0.202085
0.18866
0.871538
0.247342
0.109872
0.764551
0.800935
0.604451
0.777603
0.702142
0.506317
0.897411
0.635209
0.172407
0.0108499
0.697073
0.76366
0.265306
-0.513184
-1.27635
0.30454
-0.518145
-1.02192
2.23697
2.9509
-1.95708
-1.36028
-0.392658
1.49927
-1.14169
2.53333
-1.30082
-0.748866
0.636773
-2.43086
-1.36193
3.70501
-0.326917
-1.66468
1.44827
3.16407
1.15473
-1.37051
-1.31157
0.33102
-1.81039
6.0425
-5.56849
-1.78661
-2.52572
0.245976
-2.32979
-3.00169
4.34701
4.78165
-4.40685
-4.13052
-0.329937
2.30116
-3.62578
6.88165
-4.42013
-3.48651
0.6798
-5.47707
-5.14438
10.7433
-1.1676
-5.6388
5.52422
5.00412
2.23861
-3.47827
-3.33189
-0.032469
-4.1005
13.2845
-13.0746
0.914701
-4.47992
-3.28919
1.32139
-1.79553
4.20635
-4.31359
-6.86089
-3.89095
3.38635
-0.284512
-7.45888
3.42879
-2.75406
-4.09674
-2.29843
-5.41537
-7.4866
26.191
-0.0917621
-3.25716
27.1601
-1.16842
-3.65561
0.0973946
-0.894435
2.19471
-3.48517
17.4778
-9.03389
1.50136
-2.43131
-3.13601
7.15345
-1.70326
5.48905
-9.40932
-6.08003
-6.09543
7.18048
1.03629
-7.78818
6.96006
-4.13325
-5.19922
-4.73736
-6.50534
-11.9632
39.247
-0.336686
-2.68008
32.8635
3.06809
-3.35155
1.4074
4.41542
6.29737
0.170384
25.8396
-9.30454
-1.40231
-0.546972
-3.89326
11.8602
-2.19575
8.2675
-15.4155
-6.67521
-11.3224
11.5977
2.35906
-10.361
13.0277
-7.22751
-7.99182
-6.47646
-9.29268
-23.0569
64.0719
-0.753608
-5.84934
39.5123
7.12202
-2.54783
2.52255
10.9708
9.73563
5.22884
42.5837
-22.899
1.18202
-3.31387
-6.79399
13.7347
-5.81649
7.2837
-25.7261
-11.101
-14.5596
14.2045
0.881052
-16.0553
14.0038
-8.85941
-12.5547
-14.0516
-11.7073
-31.8804
76.2235
-0.795531
-7.90132
47.9874
2.31426
-5.80653
4.84978
10.4597
13.4814
5.90277
55.8541
-24.3405
3.30989
-4.91489
-7.11756
12.3435
-9.30998
8.60536
-33.3995
-12.7095
-17.4073
15.5997
0.643393
-17.9471
13.805
-9.57388
-13.8984
-18.16
-12.5148
-36.4484
88.3831
-1.22679
-8.8506
54.8765
5.07948
-6.98047
5.6817
11.3093
12.1588
5.75479
71.1222
-32.9344
1.74223
-5.5022
-3.8688
12.9001
-6.06195
10.6375
-13.04
-13.914
-15.5927
9.89881
6.18646
-14.3538
18.9875
-12.2116
-12.8502
-11.7488
-15.2051
-29.945
58.4235
-3.6842
-12.3318
36.1214
13.0989
-0.0982831
-3.35282
7.75367
11.8374
0.730192
47.8846
-20.8006
-2.84174
-8.41247
0.749308
5.89488
-7.76783
7.78588
-9.75069
-14.0757
-10.555
5.39171
10.1032
-13.127
21.6705
-9.57321
-12.1347
-13.3006
-13.8147
-21.9189
30.7517
-4.02951
-12.3613
25.9406
7.6399
6.90737
-8.0216
-1.4129
11.5224
-5.69401
27.1695
-4.90435
2.83594
-5.63874
1.36801
4.63718
-5.90317
5.34529
-10.335
-10.2654
-7.63432
5.93196
9.76831
-9.60881
20.449
-8.61755
-9.42325
-13.9632
-10.9177
-19.608
24.6294
-0.993725
-8.43463
27.2975
3.89659
6.69684
-4.22912
-0.85368
14.3599
-4.2551
20.5315
3.56724
5.00937
-4.51704
-1.05701
4.21135
-1.55501
5.59961
-4.67452
-7.63058
-5.15055
3.50663
3.60046
-4.53702
8.3506
-8.65735
-5.31184
-8.68435
-9.80471
-11.1596
18.4225
-1.59262
-6.43785
24.4851
5.80644
-0.159419
-3.94829
-1.69819
10.3531
-5.22573
22.0609
9.87592
5.26121
-6.16515
-2.79115
6.09508
-2.58488
4.47984
-1.88338
-8.66573
-5.3145
3.54413
3.36554
-7.74873
9.41066
-6.39579
-6.09432
-5.60273
-8.77369
-11.8223
17.3125
-2.43511
-4.6325
20.6157
3.89413
-1.5013
-2.79306
0.351582
7.02899
-5.01039
15.2267
8.7804
0.25426
-6.90719
-2.95365
5.69719
-2.64485
3.03456
-6.02785
-8.94703
-5.03015
3.54964
1.85342
-8.67777
6.92038
-4.15249
-7.17009
-4.05217
-6.36866
-10.9794
21.7239
-2.36321
-4.41831
22.4596
-0.590986
-2.61737
-1.5311
0.391412
3.93032
-3.44528
13.2973
0.144671
1.77603
-6.20975
-2.04921
4.2079
-1.6097
2.01823
-3.86636
-6.87751
-3.26722
2.07216
0.893722
-7.28343
5.17763
-2.16832
-4.58373
-1.80047
-5.21075
-7.25752
16.4212
-1.16967
-3.20849
20.4485
-1.7775
-2.17206
0.432674
0.564417
3.06636
-2.28697
14.4862
-1.70844
3.88512
-3.96701
-1.58148
5.261
1.75496
1.66702
-2.90256
-5.6264
-0.0949871
4.08316
1.83157
-4.25289
6.34973
-0.451473
-1.54511
0.803446
-3.08675
-5.93856
13.0408
1.06176
-1.51987
17.2345
-2.24379
-1.7109
1.78164
2.08639
5.30166
-0.959088
8.51328
2.07222
2.90701
-2.00287
-1.03039
3.97472
2.07312
1.62657
-2.75666
-2.59482
0.415838
2.7127
-0.119241
-2.27715
3.37508
0.425908
-0.847925
2.74558
-1.21499
-2.81661
15.0992
1.13699
-0.505271
15.1977
-2.57697
-2.64573
2.98318
2.04923
3.35758
0.617457
10.5668
-2.52211
0.038925
-1.22874
-1.01714
1.47835
0.582097
0.516377
-0.548431
-1.19078
-0.500153
0.856624
-0.31658
-1.90568
1.65062
-0.366185
-1.02841
1.08846
-1.18207
-1.48854
7.96331
0.0618883
-0.451648
4.40802
-0.812752
-0.858507
0.88947
0.892771
1.37614
0.353349
7.01544
-3.20779
0.890928
-0.705744
-0.397542
0.144631
0.320999
0.17904
0.408382
-0.68043
0.262076
0.889382
0.679745
-0.318783
1.53539
0.159294
0.138407
0.627022
-0.933995
0.0766007
2.00588
0.216601
-0.696131
2.25377
0.542739
0.252595
0.11951
0.270055
0.431726
-0.525355
4.2861
-0.6549
0.503358
0.930975
0.898036
0.291166
0.629141
0.9754
0.544049
0.830669
0.0548099
0.189622
0.975294
0.765209
0.869878
0.0323388
0.518437
0.375437
0.969667
0.193147
0.228571
0.596947
0.896504
0.549478
0.0847728
0.776984
0.77109
0.708398
0.0519357
0.883565
0.0716365
0.994661
0.269917
0.499773
0.687318
0.748435
0.944647
0.689707
0.911773
0.171227
0.815332
0.282828
0.481877
0.910853
0.703183
0.399308
0.168436
0.902494
0.210064
0.548365
0.372777
0.263153
0.806702
0.235834
0.658912
0.335606
0.522131
0.452883
0.60687
0.667104
0.0217659
0.819205
0.377316
0.541796
0.9697
0.746284
0.793286
0.758699
0.453228
0.40675
0.244226
0.70228
0.213819
0.661177
0.407049
0.276393
0.343149
0.301463
0.688401
0.954292
0.778182
0.902304
0.0216561
0.97424
0.053752
0.409958
0.163551
0.796038
0.0115786
0.602006
0.921468
0.109927
0.545015
0.0730384
0.556517
0.383381
0.48143
0.390933
0.408673
0.559109
0.941078
0.69903
0.589636
0.0111431
0.282762
0.387383
0.745794
0.56569
0.554309
0.268586
0.117163
0.16162
0.354305
0.80831
0.265734
0.191671
0.414449
0.648154
0.529665
0.0728548
0.469946
0.378955
0.0988572
0.493255
0.132815
0.216246
0.438291
0.353126
0.993806
0.892149
0.34994
0.43915
0.801629
0.982168
0.301218
0.576638
0.551921
0.143244
0.506545
0.499835
0.729641
0.0825976
0.217063
0.172927
0.385219
0.374622
0.264364
0.164685
0.856503
0.245427
0.893365
0.791156
0.964197
0.250746
0.284081
0.549814
0.718898
0.51529
0.486485
0.351869
0.858476
0.41221
0.0204031
0.915687
0.959515
0.568632
0.997882
0.400523
0.58766
0.806355
0.408225
0.0434072
0.545435
0.130099
0.574699
0.96922
0.681336
0.207209
0.563862
0.830683
0.292872
0.306062
1.01463
0.909025
0.59685
0.372428
0.541622
0.115844
0.814481
0.683074
0.582077
0.156374
0.230247
0.173238
0.3333
0.182412
0.811275
0.917432
0.774665
0.106703
0.21258
0.234214
0.756408
0.544661
0.452729
0.893128
0.312889
0.606752
0.792538
0.98601
0.949786
0.864626
1.1744
0.766431
0.837723
0.690629
0.817842
0.348345
0.599273
0.4687
0.694588
0.411223
0.708811
1.00474
0.626448
0.202466
0.648497
0.377115
0.872672
0.115592
0.161198
0.466415
-0.0803154
0.116062
0.387006
0.56966
0.741959
0.767375
0.781147
0.762335
1.62926
-0.198451
1.39422
0.143261
-0.0103064
0.833748
0.653122
0.550543
-0.0225895
-0.112147
-0.177697
1.57142
0.658629
0.0358457
2.0646
0.610043
0.482761
-0.818818
0.292073
-0.915392
2.49887
0.502031
0.0800688
2.43756
1.22681
0.924085
1.10421
1.52851
2.11355
0.317936
1.74533
0.635371
0.799819
0.654675
0.694972
0.631588
0.338129
0.791325
0.506864
0.515475
0.640218
0.433026
0.84856
-0.0462485
0.412904
0.631232
0.846623
-0.081652
0.192269
0.44606
1.66077
0.903782
0.294702
1.75039
0.857505
0.330952
0.215817
0.921749
0.241122
0.184664
0.691645
0.663341
-0.466419
-0.822627
0.678518
1.17966
-2.15822
4.11364
1.31969
-3.01682
-3.37351
1.33978
2.44295
-2.8253
4.96524
-3.26764
-2.91998
-1.73095
-3.13181
-4.43183
10.9617
-1.1327
-2.099
9.44642
4.27366
2.00842
-1.83902
-0.416678
2.15936
-1.63046
7.76134
-3.60148
-3.84436
-4.84002
-1.6464
3.0494
-8.35026
10.5205
-6.23743
-9.86466
-12.9612
5.6807
5.02965
-11.2547
13.1445
-10.6241
-10.1189
-7.83399
-12.3398
-19.159
53.8842
-2.91316
-8.57858
36.4491
10.0105
1.01854
-4.2418
0.827586
5.30449
-4.37667
38.0662
-22.0914
-1.54224
-12.4756
-8.5132
12.6948
-3.12845
16.2009
-15.9926
-23.789
-13.3482
15.1371
3.04057
-23.2373
22.2377
-10.987
-12.6842
-1.23617
-21.7372
-30.4556
120.586
-0.426048
-13.3903
100.766
-0.423512
-9.36344
-0.826427
2.61829
16.9585
-7.53783
73.1226
-37.7159
-2.08806
-24.0915
-14.0973
35.295
4.278
25.6429
-31.4077
-41.7712
-17.3714
30.2771
3.97786
-40.6723
39.8505
-15.0446
-19.8179
6.0769
-35.0323
-50.5607
213.307
1.76869
-20.4898
187.091
-8.74361
-18.3321
2.48884
11.1226
36.8455
-7.56982
113.266
-46.4938
-11.9189
-37.1086
-22.1433
58.0205
-1.08558
38.3733
-48.994
-60.9332
-36.5638
45.5986
7.16763
-67.1207
59.3664
-29.8523
-38.4917
-2.8441
-56.151
-86.0745
313.667
-3.75361
-34.6283
259.275
-4.41099
-24.6418
-1.29089
21.9048
53.6591
-6.84921
154.059
-52.837
-15.4103
-54.2803
-26.6708
81.1632
0.215429
54.9567
-40.7051
-89.2368
-57.9912
53.5134
17.7932
-95.6773
91.2441
-53.4583
-59.2357
0.359613
-86.7308
-120.972
397.241
-11.8647
-59.9287
305.632
13.8749
-24.3457
-15.7615
24.607
71.4866
-16.8509
203.389
-65.8028
-22.8681
-93.929
-32.4972
109.881
10.9839
77.3493
-37.7528
-131.674
-73.0039
57.627
34.2174
-128.241
147.683
-73.1306
-74.0385
31.0208
-126.768
-159.614
522.928
-15.7468
-93.8641
406.882
20.3777
-24.66
-35.5549
24.5968
100.63
-33.8355
276.218
-102.635
5.78026
-130.271
-27.4031
124.103
20.6312
83.5728
-5.19755
-168.547
-60.3667
52.0988
63.7924
-138.862
229.975
-75.5275
-80.4699
68.9248
-149.515
-167.946
503.14
-16.0255
-110.698
446.099
1.83913
-2.62284
-54.7646
5.38384
148.917
-62.2366
250.783
-60.6449
13.3687
-179.252
-40.0152
135.536
24.003
76.4322
5.4065
-215.417
-48.8362
51.6301
68.5317
-175.088
272.513
-79.3066
-96.3534
92.9201
-174.95
-168.165
513.04
-18.3953
-122.91
511.678
-44.6968
-15.4834
-59.682
-19.3975
165.45
-94.7649
231.447
6.81512
10.8037
-238.43
-63.977
160.274
32.6802
68.3993
4.76678
-267.898
-54.5087
52.0641
64.4131
-227.605
305.955
-86.5247
-116.128
121.638
-206.999
-181.09
548.25
-22.2942
-152.457
549.835
-93.4358
-41.9846
-66.3396
-27.4087
173.009
-117.104
215.139
22.6308
25.5008
-307.153
-111.713
189.235
36.285
49.3697
-14.1685
-338.841
-58.6895
69.043
31.1352
-288.189
304.025
-86.9353
-138.257
115.284
-242.139
-228.284
609.995
-25.1099
-175.103
648.594
-168.976
-115.755
-58.5066
-32.7439
183.119
-142.196
202.411
42.21
25.7544
-306.1
-133.886
184.761
33.4878
36.5748
-7.2459
-347.351
-59.4517
76.6216
4.42995
-293.711
254.429
-76.3647
-138.88
107.242
-239.492
-224.911
575.767
-29.5039
-166.336
635.684
-187.021
-155.37
-48.5841
-33.4219
149.396
-142.125
207.249
42.5418
19.7175
-254.597
-121.292
156.303
29.7062
38.1151
-11.7334
-296.124
-50.1401
75.106
-6.80088
-259.39
188.58
-57.3424
-120.188
92.6757
-198.505
-186.731
526.275
-23.41
-133.684
608.571
-167.525
-146.983
-32.2004
-23.5423
105.142
-116.899
205.908
17.4545
25.9631
-171.904
-81.9007
123.667
35.2942
34.8235
-18.1096
-200.955
-24.7461
63.603
-2.33184
-179.021
138.72
-27.1888
-74.0322
83.9635
-130.69
-127.028
410.533
-6.62486
-82.5584
489.328
-129.79
-101.17
-8.96474
-2.73228
88.2238
-71.495
152.866
12.6505
17.6994
-88.3436
-41.0303
81.0374
24.2423
29.4745
-21.4985
-104.664
-10.2862
45.556
3.03511
-95.1861
88.713
-7.21401
-32.9064
55.5477
-66.7507
-76.9252
279.204
3.49402
-35.7616
322.242
-70.2483
-53.5728
4.64908
12.0733
65.7762
-29.8742
108.498
4.47427
12.8602
-43.0642
-23.5618
50.2842
19.8289
18.5339
-31.7749
-52.3389
-1.85425
32.5906
-2.4059
-50.2102
44.5395
4.08781
-10.605
39.6302
-30.5814
-40.9569
207.126
8.15483
-11.9502
223.749
-48.9629
-36.2736
14.7405
16.9747
41.1182
-6.85064
90.1154
-12.1875
-0.639908
-19.8312
-14.1503
25.1841
6.84308
10.7869
-37.2245
-27.6094
-2.30697
22.318
-4.48603
-31.7408
17.026
3.89953
-8.83557
13.6109
-14.1935
-27.9972
145.44
5.55703
-5.44757
147.73
-33.9566
-22.665
10.7324
11.8981
19.8574
-0.537067
55.7554
-20.9106
-4.96615
-7.54112
-4.69804
6.27359
1.33684
4.55132
-16.3109
-8.93638
-2.48034
6.80025
-2.16093
-10.3643
4.06397
0.873082
-3.36071
3.05395
-4.77692
-10.8055
64.9168
2.28037
-3.429
57.2804
-12.3791
-7.80502
2.83078
3.63683
5.72742
-0.281846
22.0638
-17.4435
-2.29094
-3.9225
-1.89093
2.03474
2.86748
0.958792
-4.38866
-2.46408
-0.0732576
1.0409
-1.74098
-3.30189
-0.588192
1.53463
0.390541
6.50852
-1.11207
-0.921593
30.5454
1.12386
-0.680592
19.3143
-5.04092
-4.01657
2.04256
1.78014
-0.0815696
0.538775
10.4655
-12.1241
-1.0794
-1.03994
-0.848388
0.0144616
1.21051
0.00818337
0.302024
0.694963
-0.0372192
-0.325151
-0.988342
-0.244676
-1.08442
0.933967
0.426681
3.62461
0.221077
1.32288
8.05671
0.318394
0.222038
-0.248788
-1.15962
-0.991648
1.3152
0.527062
-1.45825
1.53868
4.91341
-4.26726
0.359691
0.321922
0.540083
0.17558
0.965322
0.162713
0.719937
0.985789
0.160983
0.643997
0.660614
0.938363
0.0726351
0.777723
0.191256
0.442821
0.496468
0.131522
0.497789
0.340833
0.382243
0.366313
0.62871
0.725349
0.935549
0.77319
0.00130101
0.866038
0.505529
0.420443
0.39303
0.655235
0.537968
0.623929
0.380405
0.473192
0.939119
0.769784
0.766006
0.263746
0.777598
0.0879195
0.662258
0.566128
0.908568
0.302735
0.0595074
0.141636
0.473655
0.719641
0.0095646
0.752224
0.623197
0.0645333
0.611334
0.69111
0.493485
0.996059
0.767691
0.581827
0.772596
0.0247698
0.306745
0.466351
0.961826
0.414182
0.15477
0.213207
0.366802
0.835104
0.593871
0.185374
0.579569
0.81746
0.0535769
0.467173
0.771369
0.394445
0.434124
0.325834
0.296776
0.910829
0.30169
0.510776
0.615407
0.150726
0.250785
0.942107
0.983965
0.503177
0.901082
0.490272
0.00233687
0.275718
0.999875
0.903613
0.0249924
0.0471862
0.0583627
0.902252
0.154432
0.535012
0.93921
0.30614
0.291507
0.366519
0.0917451
0.96046
0.44533
0.659514
0.446813
0.583682
0.948445
0.516957
0.504574
0.37191
0.687722
0.538491
0.419649
0.0443746
0.925667
-0.0106528
1.04209
0.697302
0.780057
0.75979
0.381482
0.84487
0.0570136
0.51042
0.673421
0.26635
0.574047
0.685295
0.734097
0.838857
0.0591604
0.768698
0.444452
0.885323
0.197701
-0.061541
0.880406
0.516846
0.857107
0.206217
0.880383
0.238338
0.801579
0.795648
1.47141
0.432293
0.802928
1.31702
0.723667
0.929178
0.227769
-0.38455
0.244225
0.341006
0.406048
0.145875
0.847708
1.0153
0.693982
1.25057
0.656962
-0.863057
3.25185
1.10469
0.496355
2.93879
0.460264
-0.142467
0.998078
0.657498
1.06757
0.917062
4.40256
-1.66699
-0.888377
1.11676
0.334561
0.0590416
-0.309082
0.915693
0.0703666
0.0901157
0.277268
1.50973
0.338728
-0.957368
0.204209
0.0308436
-0.202757
-0.281606
0.36336
-1.08045
4.10982
0.635696
0.306978
4.60147
-0.269166
-0.558286
0.467944
0.655861
1.52821
0.464641
3.66378
-1.1635
-1.01159
-6.02268
1.48974
0.119387
5.03273
-0.761129
16.2447
-3.12861
3.85987
-1.24082
-1.68423
-0.0951324
-1.02529
-0.271532
3.89101
1.90869
-2.64117
2.42238
13.5954
2.01325
-1.40499
10.4198
1.5808
-3.87213
1.28637
-0.998864
0.872208
-3.16581
1.89294
-3.88504
-10.4286
-16.5154
0.781499
0.306787
8.09296
6.65097
18.0369
-11.3842
1.78007
-6.59589
-1.30821
-4.8816
0.799577
-7.46469
3.66037
10.0128
-12.1884
-0.219326
54.3691
0.35126
-9.87074
40.8919
4.05402
-6.08366
-4.41088
-6.92552
2.14137
-12.4631
16.9056
-15.648
-43.3798
-53.2945
-5.31034
-4.61088
31.7204
11.9537
49.7691
-28.8249
7.24083
-30.0217
-16.3444
-15.0096
-18.2681
-15.3826
11.6664
68.8543
-27.8629
22.6702
148.941
1.43605
-31.8646
87.2168
-9.75721
-29.4663
-14.7618
-24.791
-13.932
-29.8464
60.956
-73.7036
-91.8457
-114.96
-15.5706
-1.95953
76.6262
17.5459
111.142
-62.2966
17.8433
-66.6921
-36.8982
-35.0533
-38.7639
-30.9825
24.8102
172.062
-59.2847
66.9173
294.348
3.31028
-65.0141
156.392
-29.9695
-65.5368
-32.5393
-52.8696
-34.4411
-58.8933
126.266
-146.005
-163.171
-206.054
-15.1355
0.437481
139.479
32.3763
185.768
-99.4894
36.8491
-124.298
-49.1769
-55.4497
-42.0397
-52.4747
45.2755
305.713
-100.483
127.088
470.545
6.47996
-112.14
234.367
-42.8612
-92.5066
-64.237
-92.8782
-39.3704
-99.5238
157.84
-215.302
-222.489
-308.682
-20.5875
11.8469
206.924
43.507
294.681
-163.257
58.6721
-176.12
-66.6136
-86.2398
-50.3414
-86.7784
65.0071
399.188
-162.306
147.646
654.274
8.2085
-175.14
339.105
-39.1554
-137.965
-99.9028
-138.912
-31.7234
-157.439
246.246
-282.12
-257.198
-470.708
-19.0974
28.5321
294.475
52.2586
519.429
-246.564
74.5409
-281.765
-75.8314
-113.273
-45.6759
-147.513
103.986
516.578
-250.909
177.484
819.897
-4.02116
-260.838
385.707
22.1864
-179.101
-156.3
-198.633
-41.8602
-239.515
352.448
-367.875
-302.163
-619.123
-15.5594
50.4472
383.37
64
747.731
-340.504
99.4323
-365.065
-72.4323
-145.904
-6.68957
-197.535
132.31
660.546
-336.95
219.053
957.523
-12.7271
-346.082
445.814
38.4593
-203.359
-216.508
-257.833
-40.149
-322.929
356.287
-433.787
-303.748
-781.79
-22.2618
59.5424
463.658
69.3754
854.414
-460.017
137.417
-433.934
-49.8032
-174.713
132.923
-228.229
130.18
881.49
-427.687
265.925
1103.23
-3.18352
-428.975
604.117
-55.9801
-217.628
-256.982
-354.724
23.0482
-418.383
454.761
-479.848
-327.535
-931.453
-86.4698
102.868
480.936
54.8736
865.262
-628.877
151.8
-402.775
-73.0077
-307.042
239.574
-231.303
85.6877
996.823
-521.834
230.958
1422.28
6.55557
-483.587
990.431
-239.884
-310.917
-242.284
-404.009
69.6466
-506.597
600.025
-485.657
-342.165
-1056.73
-186.927
160.849
479.735
39.6192
784.161
-791.546
131.611
-333.074
-113.033
-463.695
329.655
-242.593
-2.06579
1083.02
-620.502
157.019
1729.56
9.36335
-542.926
1369.28
-443.498
-434.153
-221.086
-428.713
117.982
-564.425
730.61
-488.049
-301.921
-1114.22
-290.686
264.353
478.091
48.6809
605.013
-899.844
98.8828
-218.694
-170.253
-588.984
331.663
-213.853
-56.1363
1064.87
-664.002
49.1802
2032.25
8.54264
-542.725
1766.53
-596.794
-574.102
-164.235
-372.066
136.304
-557.408
828.573
-475.633
-259.326
-1007.54
-361.38
338.468
417.836
74.1116
376.661
-893.39
58.2597
-42.4457
-215.505
-655.858
280.33
-148.143
-85.6519
944.766
-626.852
-71.0527
2242.14
22.737
-461.327
2140.85
-686.425
-661.501
-65.4769
-249.692
142.621
-471.79
970.092
-432.772
-189.826
-783.533
-343.315
363.238
325.9
95.3289
177.622
-761.514
46.0729
102.308
-205.947
-603.478
215.364
-58.1587
-84.5185
716.44
-498.246
-160.002
2172.23
45.7428
-324.22
2255.04
-662.571
-613.122
19.626
-112.748
164.558
-340.709
895.919
-330.746
-141.348
-525.707
-269.353
312.025
219.695
110.795
-15.5943
-549.968
44.7674
172.307
-164.85
-457.274
165.922
17.2852
-42.8705
527.474
-334.603
-153.948
1935.79
64.4664
-179.655
2091.29
-580.932
-475.974
80.298
-18.6634
164.065
-211.521
736.275
-231.742
-125.648
-257.709
-169.072
212.907
118.332
95.3021
-116.151
-326.823
47.4906
200.064
-112.437
-298.941
126.904
59.6308
-33.4647
355.624
-178.985
-129.172
1545.43
78.4544
-64.1137
1676.45
-463.692
-307.824
103.632
34.9364
159.134
-100.324
532.174
-199.298
-94.0714
-96.9889
-101.386
118.054
25.2284
59.0858
-187.733
-177.495
25.7335
174.294
-64.4395
-180.668
103.121
60.63
-48.3418
200.961
-80.0674
-107.654
1038.06
64.8917
-13.6544
1122.07
-354.989
-166.927
88.3686
37.3174
132.45
-38.8655
312.031
-132.553
-78.9583
-32.8779
-62.7672
57.4632
-13.5137
32.8155
-164.227
-91.693
8.42371
121.524
-44.9436
-109.499
42.3893
47.5184
-40.8383
85.1094
-32.4821
-75.6454
643.453
42.6157
3.37506
691.956
-237.207
-96.5614
62.1772
32.2566
67.9775
-10.251
162.01
-89.3936
-43.3296
-13.6342
-32.1606
23.9848
-14.7537
20.5176
-103.534
-36.1849
-1.49292
60.2831
-26.3223
-49.4874
2.73876
23.2782
-22.4279
25.2457
-11.072
-35.0921
343.771
19.4097
7.89059
359.414
-118.145
-51.0474
34.9525
16.6308
25.1149
-2.77037
82.5169
-45.0612
-19.2663
-4.46223
-15.271
13.7783
-0.261011
15.7356
-42.8921
-15.6423
-0.335968
26.7892
-11.0218
-19.0544
4.00995
9.37578
-9.58511
27.6514
-7.36581
-8.68926
175.289
8.20037
3.07775
171.569
-47.8336
-23.0554
13.9134
9.96778
7.83698
-0.288626
55.4281
-27.0619
-8.34917
6.17387
-2.44924
0.695184
0.578303
2.71377
-3.62594
-1.44468
-0.270754
8.66607
-3.46718
-5.97706
-3.63876
1.3263
-4.42356
4.96442
-0.279803
-0.802628
29.1907
1.18167
0.170228
22.717
-6.66547
-4.68892
3.17258
2.2501
-0.969098
1.60717
12.4829
-7.19097
-1.14934
1.60641
-0.0474411
0.503116
-0.911208
0.251861
-0.941538
0.0475962
0.152701
2.57443
0.339829
-0.933016
-0.229167
0.379657
-0.040631
-0.46317
0.703687
-0.72061
5.18128
1.09201
0.321135
5.96482
-1.02189
-0.816506
0.947092
0.719177
0.3596
0.582548
3.19945
-0.232904
0.231509
0.970521
0.554465
0.885974
0.562727
0.760733
0.635225
0.221052
0.224336
0.416761
0.499441
0.103751
0.74424
0.439634
0.926089
0.781586
0.118925
0.774786
0.827872
0.0470612
0.958102
0.81604
0.176983
0.561559
0.12168
0.0757743
0.539434
0.267695
0.146164
0.578984
0.978321
0.640155
0.0794262
0.915817
0.144449
0.762175
0.869311
0.509753
0.413932
0.956157
0.136002
0.779604
0.798831
0.954016
0.150684
0.554308
0.262802
0.910738
0.769287
0.411858
0.0933215
0.454895
0.4257
0.733423
0.64811
0.791614
0.664819
0.621247
0.295564
0.550068
1.00966
0.533031
0.295811
0.786718
0.0111225
0.586719
0.705291
0.807029
0.221649
0.115163
0.695166
0.875888
0.654559
0.283534
0.732577
0.127051
0.751199
0.398445
0.175889
0.123198
0.246895
0.899639
1.10032
0.28842
0.801479
0.892409
0.713738
0.761381
0.672448
0.302179
0.988892
0.0939164
0.928882
0.958612
1.1291
1.07138
2.24802
0.887456
0.792088
0.37461
0.605887
1.18762
0.0339985
0.51894
0.983906
0.663343
0.131626
0.450266
-0.3013
0.646419
0.00080142
-0.0928157
1.09308
0.759338
0.624482
-0.0402472
0.742467
0.270043
-0.118717
0.756271
1.47926
-0.339615
1.61677
0.688202
1.31943
0.418455
3.75865
0.499671
1.42607
0.35354
0.409496
0.0109988
0.488743
0.594827
1.44245
-0.211366
0.401704
0.302194
1.98698
0.578944
1.44864
1.10552
2.45357
-0.033303
1.29952
1.24242
0.936071
-0.203727
3.12334
-0.388457
-2.6984
-10.912
6.1869
-3.82806
3.77161
-5.78038
26.6922
-3.20519
10.2612
-3.97806
-3.31321
-2.15698
-3.73909
1.72907
9.65173
-0.61456
0.220626
5.7142
1.06128
2.62331
5.80509
6.97293
2.12122
-4.54366
6.4567
-2.08668
-1.27371
-6.63019
-5.6442
3.06273
-19.2528
-59.7519
19.5231
-10.1768
30.5436
-18.3278
127.222
-19.6959
36.9454
-39.3421
-8.93963
-3.01566
-8.93771
-1.85275
39.2327
35.5693
-8.48387
41.8768
26.8584
3.96461
1.6018
11.2343
15.1157
-13.0426
3.98858
-19.3799
-9.02645
-31.0729
-26.4841
-9.90152
-65.3773
-147.152
32.7774
-20.5515
76.9766
-28.9185
296.053
-40.2084
66.3984
-108.387
-30.0132
-10.4576
-48.0724
-11.4514
89.3973
91.1671
-25.6236
105.375
67.7246
0.258892
-15.2491
-15.0696
57.5093
-37.4217
-7.71893
-38.8057
-56.2868
-67.5058
-69.0882
-61.2653
-166.714
-319.299
60.2676
-49.9491
172.674
-52.2357
584.313
-95.2855
137.389
-231.376
-75.4843
-33.8318
-124.762
-33.8093
175.2
232.335
-67.6314
233.124
193.972
-1.63554
-37.9971
6.77883
102.421
-101.112
-27.3162
-102.879
-137.459
-151.835
-75.3036
-150.969
-280.303
-611.89
100.477
-84.0417
330.121
-77.8686
962.179
-180.742
225.51
-444.431
-126.997
-50.9306
-193.644
-83.2593
295.694
496.382
-145.345
436.306
414.216
-7.79825
-87.2437
27.4828
160.148
-184.053
-60.4885
-210.082
-238.444
-280.247
-45.7401
-300.298
-413.815
-975.829
158.223
-131.191
537.763
-106.586
1408.41
-286.798
332.892
-729.751
-171.097
-50.3483
-233.741
-158.771
453.386
836.433
-254.959
667.509
672.932
-10.6962
-187.642
9.21296
242.608
-254.022
-120.18
-359.063
-328.884
-440.55
-18.5299
-523.925
-509.065
-1379.73
267.537
-224.121
714.519
-163.893
1893.12
-412.304
440.165
-1038.37
-164.822
-47.3047
-118.811
-269.654
590.524
1194.75
-392.116
849.821
879.579
-1.02885
-298.426
-74.4943
320.983
-251.183
-159.05
-541.619
-353.742
-631.354
49.4967
-843.72
-532.039
-1879.73
416.572
-380.797
900.678
-245.163
2429
-517.555
532.633
-1493.03
-70.2629
21.5621
206.66
-407.377
714.305
1818.61
-537.833
1128.34
892.041
10.5428
-462.053
-466.235
377.634
-123.045
-232.499
-832.393
-315.664
-835.676
34.8744
-1282.93
-483.709
-2401.05
539.423
-606.153
1018.19
-336.048
2757.45
-622.715
549.151
-1960.13
92.7895
98.3655
657.816
-577.482
723.164
2475.55
-707.416
1378.56
901.444
19.4396
-652.977
-883.984
334.426
57.8266
-299.237
-1223.32
-221.515
-1004.77
226.829
-1837.34
-349.454
-2920.66
491.024
-842.91
1071.72
-462.635
2906.73
-783.771
465.477
-2367
115.382
154.972
780.088
-765.803
626.992
2912.29
-913.766
1506.73
974.114
1.45475
-870.89
-1197.9
139.609
0.0471987
-337.745
-1657.7
-276.355
-1166.95
568.93
-2527.35
-244.196
-3191.7
237.169
-1081.94
979.281
-585.834
2712.26
-999.705
285.527
-2505.11
-46.3149
112.601
592.007
-944.782
326.465
3095.98
-1137.57
1420.79
1128.77
-30.2082
-1083.11
-1204.09
-288.726
-320.392
-347.321
-2066.19
-400.527
-1304.56
1102.53
-3235.82
-169.739
-3149.05
-94.2021
-1219.64
812.087
-604.125
2288.15
-1153.56
76.4755
-2344.76
-277.572
7.30272
301.861
-1081.11
-7.03037
3018.94
-1331.14
1241.19
1431.08
-89.018
-1161.57
-761.512
-623.835
-732.684
-296.263
-2302.65
-519.419
-1381.38
1855.76
-3632.53
-250.098
-2736.99
-401.764
-1169.25
678.662
-499.681
1725.11
-1220.08
-50.3729
-1859.23
-490.37
-134.68
13.683
-1036.84
-254.347
2962.94
-1387.45
1119.38
1986.01
-81.143
-1113.63
227.044
-1024.45
-1073.51
-191.357
-2262.74
-582.916
-1333.5
2525.41
-3592.89
-269.942
-1981.67
-519.462
-964.665
447.602
-360.097
1009.84
-1103.61
-142.527
-1152.95
-505.398
-279.703
-62.6317
-845.377
-470.208
2499.54
-1220.95
802.405
2320.2
0.413172
-921.404
1173.2
-1256.89
-1085.47
-36.694
-1871.2
-461.964
-1057.53
2868.19
-3106.33
-262.919
-1075.71
-368.606
-706.936
165.192
-243.996
389.844
-852.584
-104.318
-394.546
-258.523
-356.627
358.531
-522.173
-555.153
1907.18
-874.309
416.076
2335.26
149.111
-591.971
1905.95
-1358.56
-658.557
144.892
-1331.04
-24.6835
-713.998
2553.09
-2291.94
-251.664
-308.744
-94.0152
-517.097
-149.503
-134.254
-253.544
-551.236
-16.2987
178.593
119.097
-342.006
1038.38
-187.27
-582.104
1388.31
-476.163
116.762
2059.59
283.182
-279.976
2240.26
-1394.28
-0.731738
272.323
-860.075
509.832
-397.887
1774.33
-1403
-313.145
278.21
40.5144
-388.062
-372.68
-71.5456
-626.615
-310.965
24.087
563.991
283.823
-318.052
1254.67
51.342
-599.637
923.161
-171.48
-77.8777
1619.81
330.289
-81.738
2173.61
-1411.71
373.912
302.659
-480.912
734.486
-158.088
893.467
-783.325
-343.921
750.023
37.2079
-279.736
-448.971
-31.4933
-715.145
-137.71
20.6106
813.331
219.467
-245.951
963.059
135.434
-568.712
461.611
-14.991
-211.316
1066.47
300.115
28.8245
1750.66
-1210.88
392.059
280.065
-185.924
668.671
-28.8951
475.007
-375.267
-301.204
796.569
-28.7694
-183.264
-375.759
-10.8606
-541.714
-69.9169
17.7763
761.205
64.504
-175.515
455.748
121.924
-450.652
158.752
22.1654
-172.569
563.828
196.92
74.3924
1215.01
-874.731
203.374
200.998
-47.4037
391.959
-16.1688
316.898
-68.3324
-219.124
610.594
-62.4802
-122.776
-263.399
2.32534
-383
-30.0586
5.20014
544.19
-19.94
-108.714
133.519
83.7943
-296.19
15.2612
21.6286
-91.566
224.469
103.854
63.1292
727.86
-561.858
66.9604
113.112
-8.45691
176.678
-26.7338
165.818
70.0979
-131.235
308.866
-46.1367
-65.6204
-120.929
0.134275
-142.7
-14.1618
2.71882
265.363
-42.5311
-53.2965
-25.2715
36.5344
-135.506
-30.332
7.04966
-40.0513
86.4248
43.3756
31.6238
328.75
-251.868
-8.79617
47.3682
-0.841441
37.519
-18.5409
76.5733
22.7237
-52.6445
87.9724
-17.799
-26.7742
-30.9171
-4.55831
-13.3308
-4.7921
1.24384
72.5882
-24.6537
-17.2605
-42.415
8.01466
-40.2406
-22.1226
1.04562
-12.6581
5.59154
10.0638
5.65813
60.2278
-66.7119
-18.4168
10.6876
-5.50371
-9.17438
-3.49558
1.61638
-16.9437
-11.6592
14.0812
-2.32743
-6.09085
-4.78779
-2.37027
3.28463
0.692204
0.70232
11.5943
-4.03565
-4.62938
-9.21337
1.41767
-7.52047
-6.33707
0.577102
-3.21283
-6.57728
1.63863
0.322475
1.48469
-9.55872
-3.821
1.06242
-2.79738
-2.20669
1.50739
-9.31241
-7.48035
0.665981
0.0531795
-0.267852
0.47029
-0.434481
0.453008
-0.926371
0.0764343
0.696481
0.966927
0.034763
0.139746
-0.286863
0.29306
0.906935
0.19533
0.62644
0.0131475
2.90766
0.548753
0.588904
2.73765
-0.178417
-0.0276918
0.399946
-0.0787469
0.117098
0.98318
1.82209
-0.419607
0.654699
0.525457
0.363229
0.782394
0.703225
0.0975062
0.786054
0.208892
0.846983
0.246382
0.940749
0.16041
0.00695826
0.947495
0.546852
0.93944
0.176099
0.702375
0.819422
0.0330282
0.105714
0.726908
0.140206
0.435416
0.0325512
0.0875512
0.473728
0.953985
0.623359
0.801219
0.087403
0.982149
0.978365
0.379801
0.32117
0.908002
0.792467
0.995481
0.0451333
0.555297
0.881729
0.221584
0.157518
0.410441
0.281906
0.995981
0.457134
0.0530516
0.638973
0.225579
0.301772
0.874764
0.152663
0.801883
0.254427
0.14901
0.409918
0.485936
0.122803
0.947178
0.24062
-0.596162
0.836675
0.503834
0.629406
0.438262
1.31414
0.376486
0.804245
-0.0844792
0.698748
0.134868
1.21029
0.821211
0.654435
1.66382
0.0954741
0.992481
0.64299
0.469961
-0.102714
-0.141373
0.453566
1.31422
0.727464
0.561324
0.348007
0.908365
0.607773
0.192359
-0.374031
-4.79539
8.06803
-2.90361
2.14679
-7.02567
31.2735
-3.60049
6.8754
-1.46041
-0.00434804
-3.11158
0.965489
-1.51972
6.25561
-11.8217
-0.733046
-3.13455
-8.98135
0.973965
4.22839
-9.03334
11.9488
0.0372897
2.95422
0.924221
0.108784
-4.87065
-12.3796
-3.37274
-19.4017
-78.2841
31.5436
-15.2089
13.7923
-32.5105
174.497
-28.9739
41.8274
-39.1102
-11.3601
-19.0017
-18.1285
-3.966
45.6043
-46.8569
-8.43631
5.54448
-5.04951
0.0623131
14.2712
5.01472
47.4614
-16.5217
12.9399
-12.2469
-12.275
-37.5032
-66.5199
-4.6397
-64.4353
-253.543
89.1648
-21.8189
94.0545
-62.29
529.93
-64.5693
129.156
-149.419
-33.0238
-37.9145
-54.5984
-8.52782
153.709
-18.9964
-26.0093
88.6289
20.1904
-0.684556
36.0141
-1.61246
166.681
-49.0695
22.6265
-41.5988
-53.7062
-108.857
-208.223
-10.009
-166.596
-512.687
162.084
-58.889
217.094
-105.911
1087.42
-122.595
251.746
-329.849
-80.1006
-63.1719
-143.633
-37.0958
299.921
94.7613
-75.0782
258.026
72.1677
-9.67776
54.3826
-6.56365
333.208
-114.484
18.0735
-117.344
-159.883
-240.519
-326.795
-50.0461
-344.828
-871.798
235.885
-144.553
407.052
-149.237
1758.45
-222.833
420.901
-582.379
-186.742
-94.1015
-332.542
-92.4999
485.271
351.09
-163.543
545.829
244.888
-22.3644
69.7753
11.984
508.42
-262.024
11.6297
-275.898
-354.371
-444.941
-344.744
-205.992
-524.297
-1358.85
314.431
-284.729
613.678
-211.311
2546.62
-371.653
595.992
-924.014
-309.437
-128.866
-535.084
-207.512
689.392
610.178
-323.93
844.123
490.235
-55.8016
55.3737
68.0212
704.12
-446.606
-1.43415
-541.626
-575.394
-733.587
-344.84
-491.672
-671.579
-1858.84
379.065
-532.833
769.922
-345.475
3392.78
-563.978
769.8
-1295.95
-458.706
-156.18
-763.416
-373.946
857.273
831.589
-527.739
1112.76
589.441
-98.6376
16.5914
31.834
848.945
-666.002
0.955508
-941
-788.51
-1082.47
-280.35
-924.981
-705.699
-2361.91
462.166
-896.972
840.982
-582.161
4102.43
-767.45
847.708
-1733.77
-521.955
-102.325
-699.408
-624.992
913.49
1274.8
-777.766
1356.74
605.646
-137.971
-108.791
-314.911
805.53
-736.055
4.39648
-1435.8
-897.054
-1425.9
-103.779
-1746.15
-650.239
-2947.16
529.527
-1512.82
681.199
-985.27
4491.72
-940.832
776.227
-2321.8
-463.299
-21.9171
-318.26
-927.434
796.812
1787.82
-1020.85
1508.12
221.447
-191.113
-320.854
-1157.99
449.227
-605.899
-8.65107
-2164.4
-879.735
-1739.15
-212.715
-2977.76
-468.382
-3692.43
480.676
-2216.17
375.313
-1460.16
4586.13
-1146.4
519.246
-2973.64
-386.536
52.8094
45.5033
-1284.73
450.168
2161.23
-1319.23
1445.23
-46.8963
-264.094
-605.661
-1986.88
-143.158
-536.998
0.944021
-3039.3
-829.078
-1978.21
-269.914
-4683.21
-123.93
-4422.75
251.827
-2955
9.01782
-2034.8
4644.27
-1382.95
108.404
-3627.51
-471.21
100.299
-30.7074
-1720.84
39.2148
2198.04
-1673.63
1230.23
-349.767
-375.019
-957.805
-3001.78
-729.429
-729.14
21.9444
-3935.08
-1017.69
-2187.81
169.42
-6580.06
70.9433
-4909.22
-231.841
-3564.71
-377.661
-2403.19
4376.52
-1590.54
-379.29
-4002.21
-784.355
46.1064
-586.262
-2103.01
-531.296
2074.44
-2013.68
932.397
-426.193
-512.622
-1261.13
-3445.2
-1360.27
-1274.13
6.26954
-4747.12
-1359.02
-2334.04
782.228
-8208.27
124.096
-5045.49
-753.815
-4015.71
-730.307
-2555.64
3934.66
-1728.48
-770.748
-4067.2
-1177.12
17.495
-1312.64
-2337.77
-1109.12
1923.77
-2246.38
705.196
-437.563
-624.403
-1411.99
-3379.39
-1925.04
-1914.73
30.8575
-5380.25
-1700.06
-2425.28
1544.87
-9309.49
49.1373
-4354.42
-1172.09
-4216.52
-1090.63
-2378.97
3142.1
-1618.44
-955.283
-3490.64
-1474.42
-6.5195
-1848.09
-2309.87
-1621.62
1742.02
-2249.13
547.838
-265.308
-625.658
-1224.2
-2343.99
-2371.51
-2362.87
167.679
-5621.64
-1757.01
-2362.93
2414.17
-9398.15
-129.26
-2865.31
-1237.07
-4076.48
-1357.9
-2049.06
2059.06
-1269.27
-936.659
-2382.35
-1386.54
-6.5563
-1755.28
-1955.22
-1979.67
1714.6
-1904.76
481.358
-134.964
-396.338
-904.518
-1109.86
-2868.88
-2137.54
350.39
-5292.26
-1414.42
-2009.25
2964.14
-8551.54
-351.598
-1095.18
-882.516
-3561.57
-1577.88
-1594.73
935.086
-852.674
-684.779
-972.957
-844.936
-81.1728
-730.316
-1342.65
-2164.53
1553.68
-1325.9
367.021
-59.4926
-52.1061
-445.076
245.21
-3140.33
-1213.99
555.619
-4387.31
-601.628
-1497.57
2742.72
-6667.07
-564.275
522.981
-417.344
-2857.29
-1756.61
-1189.5
133.831
-497.197
-413.792
330.517
-219.424
-205.197
481.414
-756.38
-2147.05
1118.43
-761.602
56.9811
-236.19
232.915
-96.4206
1076.15
-3087.38
-130.875
645.784
-3192.54
310.071
-998.046
1985.84
-4533.66
-814.77
1821.46
-124.276
-2149.62
-1746.14
-824.951
-392.044
-226.961
-183.833
1369.99
140.588
-301.832
1147.41
-255.418
-1959.06
672.357
-301.755
-168.392
-466.622
423.404
128.514
1566.07
-2932.7
571.187
652.171
-2044.73
847.323
-590.397
1269.09
-2654.98
-874.745
2584.44
-99.5008
-1497.15
-1549.96
-473.014
-773.86
-39.9108
-74.8485
1952.43
149.817
-302.25
1032.39
36.3274
-1720.63
374.055
-37.6117
-263.395
-637.153
443.967
254.613
1663.83
-2541.32
676.552
551.055
-1157.68
920.039
-313.795
893.766
-1230.58
-838.533
2648.9
-205.264
-986.791
-1196.3
-275.494
-698.342
16.1928
16.3985
2002.16
-83.2125
-275.36
302.753
155.253
-1373.35
38.8047
63.79
-199.16
-748.571
356.351
293.98
1472.51
-2041.08
339.422
417.921
-588.895
571.678
-196.639
704.145
-314.41
-680.57
2024.53
-237.331
-627.306
-848.462
-160.885
-521.284
-14.5008
47.455
1559.37
-216.732
-219.647
-185.917
150.621
-982.926
-210.614
64.3136
-117.74
-622.507
228.796
235.353
1156.41
-1463.7
61.2331
284.206
-293.296
204.087
-155.693
420.221
115.951
-416.593
1137.93
-150.785
-311.621
-426.826
-63.9807
-117.234
-16.2717
16.6606
862.643
-177.5
-100.736
-242.419
65.166
-496.804
-167.962
13.6714
-72.5959
-294.97
117.242
97.5262
566.977
-707.625
-27.3366
137.92
-87.1038
5.63603
-89.9957
247.893
-13.5646
-183.153
392.145
-62.2844
-106.016
-123.572
-23.0387
55.6443
-8.49207
-5.35113
285.931
-83.7899
-51.4072
-144.911
5.71854
-161.058
-70.5418
-10.5179
-39.0829
-96.1363
28.7584
15.6322
120.964
-190.238
-41.4812
26.6467
-21.5667
-43.919
-27.7222
73.2986
-75.2727
-43.1219
95.9096
-10.5677
-17.0636
-17.742
-1.73344
34.2966
2.01678
-3.66227
67.4529
-14.492
-16.5335
-21.6331
-1.53519
-29.06
-8.9981
-4.22332
-15.0966
-8.75858
6.179
3.38273
17.0674
-18.2852
-7.09161
3.67008
4.20185
-3.59202
-1.16599
33.5827
-32.0728
-0.360632
2.82384
0.343018
0.731992
-0.733377
0.678216
0.750389
-0.064995
0.632439
3.09838
-0.263195
-0.748823
-0.154492
0.882176
0.205133
0.0699777
-0.128986
-0.247722
3.78877
0.897085
0.195722
4.11871
-1.11315
-0.448971
0.874153
0.956608
0.631794
0.403343
1.52133
-0.0507847
0.828495
0.509446
0.251745
0.0780138
0.17714
0.197738
0.389474
0.883265
0.0393202
0.854574
0.825772
0.758197
0.0174979
0.0864218
0.491645
0.0710846
0.719302
0.312602
0.897016
0.15267
0.919154
0.216644
0.139158
0.823494
0.470221
0.00725077
0.863707
0.323852
0.978631
0.842968
0.772242
0.19571
0.592678
0.766991
0.549794
0.825065
0.183241
0.616232
0.291314
0.28368
0.419333
0.0873764
1.00451
0.777165
0.364491
0.530336
0.366263
0.432881
0.481688
0.780919
0.203619
0.650297
0.269967
0.617992
0.382428
0.0435187
0.553957
0.595945
0.451402
0.767513
1.52331
-2.43002
1.99626
4.05517
5.19808
12.354
2.1445
1.4243
1.30016
1.3528
0.629191
1.06745
1.07829
2.05453
3.61423
1.88465
1.18961
0.982732
2.40371
0.815922
3.24545
1.47029
17.8095
-1.46949
1.42453
2.56425
-0.0251077
0.318263
-4.05442
2.73486
0.943459
-37.2786
23.4643
3.92525
18.2449
6.09401
84.3282
-4.70709
20.4921
-9.40899
-3.70546
-9.04422
0.863751
-2.14757
24.3116
-40.4491
-3.5741
-15.1546
-9.37922
0.0310467
19.5362
-9.83866
69.9294
-7.3867
10.369
8.0123
-3.21256
-16.1229
-61.9234
-2.75521
-22.4694
-203.517
73.4946
-2.40667
58.2366
-16.4903
395.816
-41.8477
86.1417
-94.5832
-19.949
-35.9134
-31.7738
-9.43774
111.607
-98.0364
-20.3394
7.22094
3.0676
-8.99705
56.1747
19.739
205.383
-44.5051
30.4516
-11.3379
-39.6807
-79.3274
-179.306
15.0847
-90.2452
-471.212
163.023
-6.83978
183.939
3.58363
977.71
-66.4682
228.614
-240.958
-61.3695
-72.5354
-123.821
-10.9438
269.444
-92.1639
-44.6264
126.597
25.0983
-9.51615
139.031
59.7963
504.424
-123.294
64.2904
-71.4215
-119.725
-196.197
-391.113
32.1019
-238.644
-869.003
282.33
-37.5119
405.756
101.159
1816.97
-111.77
415.333
-494.939
-130.035
-97.2317
-261.394
-48.8853
471.254
137.994
-117.798
379.375
105.846
-17.684
231.092
87.5951
984.769
-254.065
78.1425
-224.282
-287.231
-400.065
-544.238
-56.0092
-463.522
-1348.64
382.435
-176.388
643.185
172.325
2753.35
-211.436
636.963
-799.077
-279.986
-134.245
-547.224
-126.084
669.564
437.997
-245.847
737.772
263.164
-47.4471
341.259
172.272
1411.42
-499.197
106.731
-542.884
-556.5
-717.22
-652.993
-323.678
-636.961
-1857.32
393.347
-430.045
810.381
211.548
3668.9
-317.455
769.189
-1131.21
-524.955
-175.986
-1003.15
-299.154
759.937
522.217
-449.324
922.263
360.286
-125.078
412.397
132.449
1847.94
-880.939
134.228
-977.712
-896.123
-1061.79
-823.554
-971.636
-692.555
-2355.84
232.124
-877.147
778.067
63.1119
4249.33
-498.466
801.094
-1527.64
-888.68
-138.826
-1692.31
-543.718
722.235
473.945
-698.058
1101.72
126.73
-258.416
378.385
-137.82
1868.79
-1379.51
135.52
-1608.7
-1348.09
-1441.84
-869.567
-1783.65
-738.367
-2525.4
-28.4339
-1478.15
506.733
-351.471
4445.94
-693.356
633.354
-1768.6
-1285.92
-108.173
-2348.5
-878.384
498.34
228.166
-964.939
1030.89
-336.772
-417.59
231.015
-794.057
1440.1
-1839.19
143.517
-2235
-1737.65
-1755.79
-878.615
-2989.18
-520.595
-2749.39
-277.125
-2077.26
62.5282
-1090.2
4090.86
-879.19
219.159
-2180.57
-1436.85
-5.62371
-2350.08
-1265.77
252.609
139.431
-1209.42
722.774
-886.671
-593.897
-176.851
-2119.05
539.788
-1893.75
63.3363
-2690.92
-1813.47
-1870.36
-1089.29
-4582.58
-194.604
-3039.46
-530.013
-2410.52
-321.745
-2117.99
3623.9
-1156.95
-337.385
-2692.77
-1505.05
66.9899
-2252.78
-1675.87
128.891
-24.6893
-1445.68
255.809
-1028.76
-797.278
-816.515
-3696.07
-598.02
-1808.84
-115.895
-2692.64
-1888.48
-1754.36
-1165.02
-6150.89
141.067
-3274.21
-894.459
-2467.63
-596.739
-3324.99
3400.32
-1604.92
-1063.1
-3222.82
-1727.87
30.7358
-2696.98
-2216.76
97.3952
-664.126
-1769.5
-452.955
-1028.87
-1095.59
-1802.92
-5737.37
-1615.55
-1905.76
-525.245
-2206.21
-2307.98
-1480.48
-1005.9
-7633.45
404.607
-3559.51
-1304.62
-2393.84
-774.296
-4172.78
3217.77
-1996.98
-1750.06
-3711.03
-2052.3
-41.3356
-3474.25
-2740.85
104.426
-1436.54
-2104.02
-1144.65
-828.234
-1413.13
-2704.44
-7285.3
-2184.56
-2213.55
-989.507
-1674.02
-2905.53
-1231.55
-606.467
-8661.69
642.951
-3848.99
-1626.13
-2352.05
-877.064
-4540.52
2795.94
-2075.38
-2115.36
-4068.57
-2387.66
-10.7993
-4269.27
-3007.73
241.432
-2026.22
-2242.19
-1465.84
-684.341
-1617.68
-3060.94
-7743.95
-2419.98
-2629.56
-1173.36
-1354.28
-3352.08
-1067.87
35.1269
-8966.83
699.559
-3472.11
-1725.01
-2582.53
-1020.68
-4270.18
2235.46
-1737.08
-2006.74
-3858.88
-2513.36
190.052
-4666.48
-2874.99
174.458
-2090.89
-2077.75
-1179.53
-928.137
-1551.68
-2683.32
-7023.03
-2372.62
-2846.07
-983.798
-1628.82
-3379.95
-1034.52
873.867
-8507.25
541.62
-2307.05
-1575.36
-2995.08
-1366.83
-3540.97
1471.58
-1137.38
-1712.64
-2936.54
-2217.68
350.035
-4215.83
-2456.75
-437.021
-1604.43
-1691.8
-719.916
-1516.3
-1199.34
-1858.28
-5451.31
-2395.21
-2512.38
-506.673
-2341.33
-2833.76
-1017.43
1640.7
-7643.93
133.349
-723.571
-1133.33
-3337.07
-1866.95
-2770.22
743.695
-542.101
-1273
-1560.74
-1514.81
340.999
-2739.19
-1834.42
-1262.12
-1006.6
-1168.72
-349.546
-2299.44
-684.678
-952.277
-3718.52
-2641.1
-1527.95
42.6997
-2855.64
-1763.91
-958.276
1644.33
-6268.19
-359.685
941.32
-743.6
-3391.49
-2228.9
-1915.61
314.044
-118.249
-853.183
-26.3053
-885.005
221.09
-1301.56
-1192.93
-1953.7
-534.885
-716.586
-194.182
-2798.46
-221.194
-202.76
-2034.7
-2742.43
-604.389
484.262
-3003.98
-755.384
-883.88
1270.28
-4996.99
-717.081
2349.95
-490.845
-2969.4
-2291.19
-1211.61
-18.1005
127.255
-512.125
1319.04
-494.858
55.5228
-368.049
-650.233
-2169.8
-455.785
-369.68
-280.596
-2931.12
97.0113
289.476
-606.44
-2620.03
1.12488
701.14
-2508.53
2.24408
-747.636
1026.73
-3404.81
-1005.93
3406.61
-521.748
-2330.21
-2082.53
-642.688
-321.026
231.275
-278.746
2285.8
-480.156
-87.1263
-366.805
-225.218
-2170.89
-373.2
-131.402
-289.352
-2686.33
257.572
511.411
468.527
-2490.1
44.6616
677.558
-1833.64
238.945
-584.09
898.692
-1976.17
-1177.38
3879.52
-604.278
-1709.45
-1765.4
-381.85
-443.901
161.022
-123.35
2737.53
-591.106
-215.838
-774.726
27.7605
-1974.7
-413.133
-10.0196
-164.651
-2230.68
298.145
519.509
1132.75
-2434.65
-120.846
553.666
-1160.95
107.687
-454.185
969.902
-757.54
-1138.98
3360
-537.297
-1153.17
-1372.77
-261.165
-298.946
41.0388
-75.1201
2436.85
-572.96
-268.372
-880.72
83.3177
-1601.26
-521.506
2.52552
-198.109
-1555.9
255.164
337.346
1121.4
-2022.27
-172.038
371.672
-585.783
-65.8926
-312.455
692.43
-329.572
-829.415
2156.29
-325.439
-631.895
-773.857
-132.204
195.892
-18.6275
-42.4715
1550.09
-407.985
-161.495
-638.379
30.7007
-908.992
-334.214
-41.0709
-136.997
-733.367
162.396
125.796
625.588
-1108.4
-127.567
183.673
-186.048
-162.89
-192.302
420.025
-369.089
-400.884
932.855
-138.047
-241.278
-277.114
-46.3111
242.001
-6.40911
-24.4561
659.145
-194.028
-88.4739
-313.877
-1.15412
-342.501
-135.708
-36.0838
-69.9553
-214.194
65.4357
26.437
211.409
-372.555
-80.0581
59.7988
-14.9393
-117.32
-64.7946
200.188
-248.543
-98.8886
223.341
-26.1674
-52.8198
-52.9899
-11.7125
96.561
-0.533582
-1.80004
156.68
-41.5843
-29.899
-67.945
-3.22408
-74.0535
-27.8643
-10.9609
-18.1012
-47.2132
16.0218
7.99748
36.527
-62.0273
-16.6061
11.6815
1.84086
-24.823
-12.7943
59.36
-63.9626
-7.099
20.2928
-1.87234
-1.48619
-3.03913
0.535751
12.9766
-1.51681
-1.22771
14.3549
-2.1059
-2.04202
-0.742922
-0.682049
-2.90042
0.806049
-1.64057
-1.96766
0.0015794
0.553131
0.353158
3.67774
-2.78299
0.470621
0.183284
0.804908
0.191549
-2.66691
4.58293
-3.83134
-0.00453173
0.425892
0.783651
0.628421
0.581013
0.776316
0.1078
0.170796
0.130013
0.691005
0.712309
0.576615
0.55396
1.01912
0.617354
0.690033
0.133692
0.315327
0.721873
0.900405
0.819675
0.461428
0.437297
0.423607
0.0255229
0.959486
-0.0540655
0.870469
0.527467
0.503302
0.297302
-0.901776
2.09178
1.74728
1.16979
3.90255
3.29276
1.16522
0.0386336
0.307565
1.58207
0.625683
1.75139
0.784514
1.23318
-2.14858
1.02377
-1.4
0.414992
0.233446
2.14488
1.50485
6.6039
-0.121346
0.772486
0.849984
0.740923
-0.357202
-1.46933
1.49406
0.662668
-9.1967
3.30549
12.152
14.2201
35.5105
-1.64118
11.4995
-0.871623
-1.24192
4.08566
5.71518
3.44908
4.34487
5.47565
8.99109
2.09948
3.74377
3.68321
0.711406
8.29781
2.66871
46.9072
-3.63942
-1.55757
1.50307
-2.76188
0.242757
-12.4955
4.83705
-0.226824
-79.5821
30.8923
27.3291
43.7676
84.6754
102.507
13.1579
17.5335
-24.3429
2.13929
-5.58867
-4.99505
1.26705
35.8879
-53.8862
-5.19622
-16.9152
-8.43642
-6.56858
41.911
5.07395
194.158
-25.9153
3.67484
1.663
-22.3108
-28.1299
-100.8
25.308
-38.3279
-342.218
114.898
45.0736
132.078
158.383
594.135
7.82503
108.459
-149.482
-5.789
-37.2812
-37.1726
4.99825
159.11
-135.083
-19.7675
-4.56457
12.2495
-13.8842
134.61
55.4417
553.189
-86.3083
36.9541
-37.9987
-72.802
-113.495
-337.277
21.9981
-154.389
-654.416
211.168
75.0585
342.934
400.629
1262.63
61.725
265.449
-293.849
-59.7108
-63.3396
-183.118
24.5742
295.132
-62.4986
-33.9152
138.402
5.48161
-11.7971
302.053
116.603
1180.55
-233.343
73.0305
-150.17
-200.826
-239.36
-643.07
14.1458
-344.418
-1078.74
276.348
77.4374
648.552
776.753
2029.41
111.759
413.432
-550.441
-168.688
-43.1996
-457.595
14.3022
417.341
292.583
-95.1464
444.916
60.6074
-29.6735
455.919
118.426
1928.7
-489.707
59.76
-402.709
-470.367
-439.032
-912.907
-217.046
-505.305
-1472.56
222.94
-84.4844
811.112
1069.72
2581.93
119.322
495.65
-780.331
-390.405
-22.5639
-947.329
-42.057
419.185
460.86
-204.585
708.727
88.8739
-103.472
622.015
197.429
2455.71
-903.131
77.8018
-838.882
-831.736
-713.861
-1159.16
-674.923
-597.629
-1730.4
-28.7466
-365.868
806.177
1198.84
2819.88
112.755
411.763
-984.04
-793.49
5.62846
-1807.07
-227.882
264.302
278.79
-378.977
708.197
-81.3604
-268.403
678.368
-33.6367
2750.31
-1505.03
42.4108
-1316.18
-1335
-949.321
-1334.25
-1483.23
-595.103
-1797.32
-511.028
-747.379
591.513
1066.12
2604.27
43.7944
122.32
-1150.6
-1367.84
86.0718
-2994.49
-512.566
18.2607
-153.897
-590.403
582.729
-564.703
-518.309
579.629
-619.391
2529.2
-2280.75
-25.6764
-1767
-1989.71
-1131.68
-1292.48
-2423.08
-590.738
-1540.6
-1142.23
-1083.98
278.8
538.794
2153.84
-80.2467
-355.023
-1242.75
-2037.58
216.511
-4305.98
-856.684
-159.9
-815.051
-810.18
264.649
-1089.51
-841.23
204.893
-1790.31
1800.27
-3021.12
-250.174
-1860.18
-2730.26
-1164.93
-1367.19
-3564.11
-452.193
-1222.18
-1587.85
-1115.99
-77.6155
-447.503
1454.31
-323.342
-976.066
-1471.61
-2313.68
350.876
-4617.79
-1255.11
-130.852
-1269.32
-1002.87
-298.054
-1224.27
-1188.73
-540.893
-3568.5
752.999
-3084.72
-683.631
-1296.22
-3021.86
-895.817
-1441.46
-4553.42
-109.954
-937.09
-1717.84
-736.617
-262.059
-1585.26
742.411
-606.576
-1615.89
-1767.15
-2184.21
418.022
-4144.83
-1663.33
142.32
-1689.93
-1141.25
-1043.53
-984.425
-1472.15
-1531.67
-5751.33
-201.597
-2531.09
-1242.75
-33.6172
-2969.87
-302.603
-1616.94
-5184.76
242.951
-836.477
-1741.33
-120.438
-270.018
-2646.54
647.405
-1057.65
-2231.73
-2125.81
-2000.51
356.264
-3815.26
-2129.71
520.981
-2280.49
-1374.16
-1856.07
-542.238
-1728.88
-2703.66
-7897.42
-705.724
-1983.58
-1921.36
1431.06
-3061.06
281.472
-1397.98
-5498.38
438.551
-879.794
-1634.17
486.331
-117.623
-3301.81
919.621
-1391.15
-2709.32
-2489.36
-1894.17
282.005
-3814.27
-2549.82
1074.27
-2905.55
-1600.01
-2480.99
190.355
-1900.76
-3681.77
-9377.76
-522.642
-1675.78
-2478.57
2824.86
-3322
709.422
-591.673
-5531.14
620.88
-1125.9
-1454.59
764.688
47.575
-3355.35
1215.94
-1312.03
-2770.19
-2813.22
-1863.39
372.511
-3990.33
-2686.85
1501.62
-3408.44
-1605.84
-2664.3
374.798
-1971.94
-3842.3
-9777.8
237.831
-1642.84
-2641.74
3401.95
-3492.66
868.757
-57.0363
-5175.33
720.966
-1184.6
-1181.9
482.508
71.7042
-2923.63
1216.81
-834.935
-2421.55
-2893.94
-1755.33
601.124
-4048.83
-2510.56
1641.56
-3348.32
-1364.69
-2088.43
-329.714
-1856.26
-3204.51
-9218.47
1002.19
-1596.49
-2342.37
2895.68
-3425.61
697.656
497.989
-4294.16
786.693
-1052.79
-900.925
-476.574
-353.534
-2354.78
1116.81
-246.276
-1852.28
-2646.03
-1522.53
856.533
-3759.85
-2158.04
1084.35
-3029.61
-1014.07
-1306.07
-1771.14
-1524.87
-2049.11
-7818.01
1202.04
-1469.08
-1577.39
1261.63
-2990.86
304.68
866.002
-3639.44
658.694
-647.723
-727.13
-1527.39
-940.723
-1764.16
602.993
316.989
-1435.28
-2041.19
-1189.58
968.878
-2981.61
-1681.1
122.26
-2311.22
-641.438
-667.978
-3314.98
-1108.8
-948.006
-6410.84
728.854
-1158.61
-729.46
-492.899
-2290.63
-48.2284
567.791
-3541.58
257.828
84.144
-630.433
-2287.77
-1540.35
-1175.44
370.437
564.82
-1131.62
-1062.86
-922.71
859.567
-2112.45
-1257.68
-820.304
-1855.06
-425.976
-430.533
-4270.62
-729.746
-151.465
-4785.53
135.82
-823.196
-48.8725
-1709.27
-1571.71
-396.882
55.9318
-3508.77
-266.621
1309.74
-752.603
-2510.3
-1864.23
-604.881
265.644
640.635
-879.179
256.978
-963.965
581.741
-1904.72
-833.144
-1395.24
-1567.91
-283.849
-347.674
-4367.88
-409.486
376.665
-2931.58
-382.55
-824.835
386.164
-2075.91
-1140.67
-576.654
22.883
-3137.13
-712.2
2731.71
-924.78
-2295.68
-1892.05
-313.68
-53.4474
595.158
-651.757
1562.84
-1078.46
297.65
-2002.05
-461.978
-1747.75
-1262.53
-171.009
-291.335
-3919.14
-131.597
589.347
-1232.06
-1130.21
-889.568
542.547
-1832.57
-828.627
-597.068
458.947
-2240.29
-1002.77
3711.29
-950.408
-1884.59
-1740.76
-99.9402
-140.64
444.984
-445.769
2429.12
-1048.6
82.7839
-1894.44
-213.679
-1919.59
-889.878
-118.387
-253.358
-3055.69
66.9758
598.842
-13.8329
-1513.56
-785.494
525.299
-1373.68
-631.347
-506.517
988.798
-1523.21
-1228.45
3922.12
-808.969
-1404.8
-1546.77
-113.164
92.0385
201.794
-319.128
2712.16
-913.048
-136.725
-1548.42
-68.6087
-1741.31
-866.287
-101.914
-390.69
-1959.44
180.477
381.303
573.901
-1629.66
-546.976
417.822
-697.614
-467.334
-362.097
914.444
-1215.6
-1098.84
2936.71
-509.865
-870.303
-1002.02
-165.326
562.972
12.9339
-180.634
2037.74
-654.531
-184.529
-1050.16
-47.1725
-1128.72
-570.406
-122.57
-310.865
-898.64
174.499
98.3148
457.346
-1196.23
-314.082
227.727
-183.065
-380.939
-229.741
657.138
-1088.4
-606.178
1435.93
-208.774
-363.35
-409.052
-94.7514
525.724
-19.2471
-61.8525
988.146
-312.374
-119.753
-490.546
-30.4013
-453.844
-234.58
-77.8182
-134.932
-287.061
88.8438
3.6875
197.329
-492.241
-130.336
86.2238
23.6675
-214.915
-97.4187
346.776
-535.963
-135.158
324.941
-41.1447
-74.8004
-77.6198
-20.3672
150.54
0.116728
-6.70401
223.403
-65.4333
-35.2841
-100.411
-4.74706
-88.904
-43.361
-16.8711
-27.5495
-50.8593
20.8714
5.76592
50.1503
-85.8322
-27.9865
20.2322
15.2474
-41.8465
-18.4737
98.4788
-114.527
-6.72061
21.9627
-2.20585
-2.27533
-2.28178
-0.375541
12.2007
0.811389
-1.11783
14.5553
-3.03213
-1.69618
-4.78597
-0.706148
-5.20164
-1.36477
-1.64027
-4.20804
-2.62179
0.830014
-0.615026
-0.548029
0.710131
-1.29221
0.321587
1.5874
-1.59189
0.125177
9.75828
-8.4502
0.996149
0.965847
1.02898
0.662248
0.683118
0.899033
0.803032
1.13367
-0.10336
0.28357
0.873239
1.77228
0.791558
1.21284
0.082734
-0.137664
1.21513
-0.284651
-0.884763
0.329452
0.771455
0.480557
1.50292
-0.112434
0.57715
0.0323784
0.168597
0.394105
2.65217
-0.31365
-3.42216
-1.98561
1.64162
4.56557
2.4311
17.4337
0.764003
2.84466
-4.77031
-0.217707
4.68942
0.669195
4.12284
1.36568
-1.35374
0.66924
0.410451
-3.55404
1.86712
-0.465462
1.02221
0.240413
21.9632
-0.138791
-2.06233
-1.47529
-1.53557
-0.789595
-2.56775
-3.72104
-7.99491
-16.3065
5.69967
32.0545
30.6819
107.32
-8.39622
32.042
-8.31636
2.37619
14.2989
9.40093
11.4241
12.3303
0.723438
18.3539
6.33883
-0.113555
11.8742
1.55631
22.8576
18.7851
132.72
-8.07741
-6.98846
-1.7828
-4.35097
3.2508
-39.0487
11.3221
-17.6307
-130.042
41.4231
85.2692
95.5321
267.412
115.756
69.7373
1.74726
-26.2711
22.9202
-0.797369
5.03054
20.7939
33.7027
-54.6998
4.13902
-41.455
18.6155
-5.46961
84.3769
51.3195
432.974
-45.7848
-7.61547
-4.07541
-31.4323
-24.0456
-221.217
35.1119
-87.9054
-406
120.072
129.662
212.997
460.181
598.068
95.6293
69.6366
-153.681
22.1691
-21.6884
-51.5101
37.5013
125.544
-119.849
-4.00654
-31.7437
6.70377
-24.2272
196.924
83.4463
935.4
-139.494
-0.313997
-74.5695
-115.559
-113.515
-549.336
8.37707
-257.663
-693.607
160.071
180.243
474.225
867.589
1125.38
225.732
169.466
-298.836
-43.9135
9.07042
-266.631
89.0702
182.852
82.1862
3.04483
155.526
-38.4926
-26.9925
376.029
90.6692
1623.98
-352.603
-6.62446
-246.446
-310.56
-213.414
-894.745
-91.749
-462.55
-1029.53
84.0013
172.17
701.827
1316.33
1509.65
347.342
176.409
-522.497
-205.395
49.2097
-724.927
88.5201
135.199
347.696
-32.7867
363.532
-98.5295
-82.7275
488.854
-4.3758
2281.19
-721.046
-85.4016
-543.926
-657.975
-339.755
-1206.64
-448.358
-529.562
-1191.47
-197.97
110.723
765.513
1841.2
1189.4
517.817
9.19512
-605.84
-501.738
144.314
-1472.68
68.6181
-61.915
271.006
-75.4271
405.778
-247.439
-225.989
634.946
-51.837
2822.28
-1283.96
-156.186
-906.572
-1118.8
-448.805
-1459.26
-899.957
-588.101
-1006.27
-765.406
-60.9071
557.798
1866.52
491.559
548.572
-410.048
-594.395
-1046.64
227.689
-2713.23
-148.367
-390.156
-209.987
-218.746
184.367
-501.742
-507.796
513.211
-499.325
2594.9
-2056.42
-340.558
-1107.03
-1808.77
-455.733
-1338.36
-1602.12
-576.264
-698.622
-1554.57
-286.909
178.359
1531.01
-561.222
505.762
-951.357
-587.545
-1780.05
305.546
-4304.91
-442.029
-753.541
-936.104
-391.941
-169.508
-1056.45
-899.016
247.905
-1259.7
1792.63
-2983.58
-598.671
-1231.44
-2611.84
-415.78
-1207.75
-2271.84
-619.604
-298.422
-2390.42
-221.372
-81.8432
913.849
-1481.69
347.921
-1619.22
-736.545
-2552.09
444.827
-5940.11
-835.711
-750.954
-1771.22
-603.731
-557.608
-1311.38
-1429.21
-390.221
-2723.68
995.667
-3787.23
-1170.93
-687.327
-3619.66
-200.054
-1262.78
-2771.73
-600.043
345.416
-2748.12
206.48
-301.956
277.359
-2472.85
166.722
-2180.85
-708.847
-2649.05
547.199
-5881.38
-1125.86
-614.159
-2037.02
-720.372
-983.691
-1079.64
-1788.42
-1118.66
-4088.23
248.431
-3576.67
-1765.03
474.65
-3792.84
291.615
-1187.57
-2621.52
-202.849
805.56
-2419.87
752.687
-286.938
-218.832
-2697.02
28.6556
-2489.65
-694.695
-1971.59
631.998
-4130.13
-1308.24
-300.273
-1898.9
-758.42
-1577.8
-764.963
-1785.07
-1776.18
-5641.47
180.203
-2416.63
-2109.8
1698.55
-3082.17
848.702
-1000.12
-2651.07
175.484
971.115
-1700.07
1324.34
-49.5001
-443.257
-1837.19
-99.299
-2558.14
-672.264
-1097.86
585.551
-2249.77
-1409.94
240.964
-1724.48
-800.099
-2011.57
-145.935
-1514.52
-2294.75
-6430.21
804.737
-1165.53
-2228.97
2845.17
-2305.65
1197.68
-284.695
-2362.51
236.4
975.813
-867.258
1756.78
445.517
36.2081
-166.665
21.9108
-2492.06
-667.985
-391.008
536.351
-989.344
-1506.59
673.589
-1573.79
-854.751
-2294.08
562.272
-1169.47
-2527.15
-6790.59
2700.84
-290.308
-2254.17
3643.71
-1891.34
1357.86
725.578
-2384.57
205.197
625.461
-108.495
1817.08
776.776
378.392
1269.22
308.751
-2171.79
-990.373
59.7653
615.665
-367.831
-1516.3
1133.61
-1763.99
-766.093
-2222.89
556.463
-1007.16
-2306.42
-7098.94
4551.34
233.637
-2210.52
3816.33
-1685.51
1281.43
1002.81
-2048.67
364.022
-4.03088
328.272
1432.21
805.718
349.071
1839.66
566.437
-1570.73
-1561.02
142.07
873.085
-574.523
-1389.71
1482.74
-2108.19
-523.632
-1608.22
-472.416
-1007.72
-1657.71
-7054.14
5325.36
272.527
-1967.53
3132.78
-1707.12
957.176
760.278
-1075.8
573.611
-854.858
406.492
576.31
508.378
162.632
1771.89
802.397
-992.139
-2224.23
27.5568
1177.15
-1116.91
-1225.93
1365.73
-2100.35
-276.29
-687.45
-2010.46
-1029.17
-856.138
-6519.98
4940.34
33.9843
-1543.96
1596.3
-1798.6
502.591
216.86
-438.886
802.956
-1579.36
69.1749
-507.276
-51.4115
-168.938
1103.63
991.88
-800.47
-2650.8
-335.579
1374.65
-1801.86
-1101.87
815.554
-2025.85
-120.521
-138.191
-3627.05
-1080.62
-180.206
-6264.97
3723.24
-505.297
-945.442
-102.911
-1961.06
140.16
-657.089
-1012.22
640.937
-1489.68
-555.785
-1505.61
-803.854
-341.73
368.041
988.661
-954.879
-2292.06
-912.707
1291.33
-2655.64
-1031.19
-33.1519
-2244.22
-134.124
-136.315
-4715.69
-1071.53
223.808
-5606.05
2246.14
-1275.73
-384.002
-1441.42
-2107.77
-209.882
-1126.75
-2128.39
289.751
-348.405
-1100.36
-1970.93
-1288.54
-259.523
-17.052
925.943
-1106.61
-1143.97
-1412.11
990.899
-3358.96
-935.381
-639.789
-2332.35
-222.613
-259.746
-4908.71
-911.599
413.945
-4350.62
1167.54
-1827.81
37.7915
-1863.36
-2118.98
-440.007
-522.226
-2552.76
-220.638
1304.13
-1361.54
-2004.35
-1535.53
-126.415
-253.734
806.311
-1096.55
316.739
-1567.49
606.256
-3463.79
-737.355
-1228.07
-2069.78
-247.137
-425.922
-4302.09
-611.928
475.624
-2702.28
103.444
-1884.93
235.007
-1763.94
-1822.71
-461.072
224.509
-2425.54
-587.158
2664.6
-1239.59
-1774.05
-1566.37
71.2667
-277.245
618.104
-882.175
1509.02
-1312.97
291.907
-2724.55
-494.436
-1634.3
-1499.69
-223.382
-537.633
-3247.28
-271.052
483.109
-1257.41
-473.371
-1403.69
341.035
-1447.26
-1232.95
-373.807
909.838
-2174.03
-960.303
3519.69
-948.107
-1383.98
-1449.19
-5.39085
31.5461
336.767
-613.998
2295.33
-1003.83
-21.1058
-1846.91
-267.995
-1621.32
-1151.63
-188.339
-663.194
-2008.1
13.8721
305.061
-240.985
-962.757
-818.557
334.057
-762.586
-697.346
-251.845
1124.11
-1897.22
-1095.81
3058.48
-590.081
-950.065
-1033.06
-213.983
651.002
39.4449
-302.362
2064.65
-737.192
-188.399
-1227.43
-124.226
-1123.58
-784.868
-162.661
-496.406
-954.107
129.908
55.7138
123.113
-1065.23
-442.302
212.405
-209.565
-474.709
-186.589
757.988
-1541.3
-667.926
1597.1
-251.083
-436.681
-462.123
-155.413
603.37
-36.6102
-98.5792
1084.14
-374.419
-140.879
-606.234
-57.8425
-524.351
-348.767
-94.4408
-243.901
-345.112
89.4002
-26.9046
62.0747
-554.506
-189.356
82.1875
-1.30834
-262.222
-87.4967
382.016
-823.307
-155.779
348.113
-44.5841
-83.7421
-77.0119
-31.6458
162.403
-3.46192
-10.7663
233.95
-72.1497
-49.6116
-121.62
-8.66775
-107.454
-57.1501
-16.1231
-45.6487
-65.2233
21.0278
-0.0295583
10.3393
-98.0749
-36.6991
12.5192
6.12337
-46.1903
-7.58443
80.7111
-167.41
-6.73646
13.5075
-2.08576
-4.02293
-3.47357
-0.818916
7.00088
0.000145378
-1.73085
8.57511
-2.93291
-1.38355
-5.81793
-1.23722
-4.81195
-2.65542
-1.0605
-3.26051
-2.19791
0.373673
-0.634867
-0.336152
-3.11706
-1.37409
-0.125193
-2.26073
-2.62578
-0.169634
1.67227
-11.1797
0.671952
0.202046
0.367047
1.14069
1.27632
1.07292
0.754259
0.472727
0.0725614
0.965092
0.911881
1.15684
0.51149
0.288276
0.286477
1.0427
0.541479
0.262231
1.17427
0.473072
0.594982
0.0918412
1.4962
0.864169
0.162059
0.93925
0.88812
0.218177
0.299783
0.538743
-6.16532
-6.76271
-0.157688
4.64515
-0.466589
24.9874
-3.6301
0.693612
-9.34382
-2.05028
4.80551
-1.11784
3.65846
-0.502095
-6.38434
-1.97673
-1.32185
-6.91914
1.37516
-2.28461
-2.27995
-1.52293
30.414
-2.41196
-6.39316
-4.31124
-3.43181
-2.59298
-6.14526
-5.74475
-16.9817
-24.4024
6.60882
48.382
48.221
163.791
-14.1524
49.1419
-18.8782
6.37247
17.2838
8.65197
10.474
15.8762
-5.22758
15.5692
8.32526
-18.3754
18.1571
1.98719
30.125
18.2666
202.058
-15.8258
-11.7622
3.24256
-9.59381
7.02445
-73.5164
1.37468
-46.5514
-139.802
32.6548
127.923
145.912
414.607
82.5029
129.975
-28.2681
-20.7414
34.0879
13.8023
3.07918
38.4097
11.2585
-16.9612
15.2801
-55.8917
27.9647
-6.55978
101.458
33.5435
596.668
-63.5329
-27.826
-0.507189
-51.6122
-1.07132
-302.15
3.06016
-143.96
-365.144
67.9093
200.385
276.22
689.758
424.746
203.582
-21.3087
-123.902
36.1908
16.6054
-71.6207
71.3984
37.3118
-18.0021
23.252
-61.0572
4.24304
-25.4869
197.46
45.4242
1094.5
-176.473
-55.4516
-74.2923
-150.048
-53.6648
-645.611
-55.1831
-304.506
-601.154
29.5563
312.321
497.209
1141.32
549.08
351.609
-44.1934
-258.285
-31.624
66.6382
-353.616
141.606
56.9018
132.77
57.6029
52.268
-72.5573
-60.9518
296.209
-32.9614
1668.65
-419.028
-129.657
-190.122
-380.201
-91.0155
-1052
-143.809
-458.711
-714.425
-192.871
302.596
557.731
1459.09
386.284
471.431
-207.151
-369.45
-244.991
107.845
-956.249
105.473
-135.781
88.1369
29.8703
42.9809
-223.287
-181.218
302.927
-245.588
2015.88
-833.984
-284.119
-377.966
-760.029
-104.855
-1203.01
-488.033
-459.658
-549.113
-680.828
275.8
352.451
1664.58
-710.228
581.505
-605.075
-288.274
-611.251
172.741
-1904.76
19.1477
-484.908
-420.755
-11.543
-193.805
-442.909
-420.358
259.712
-375.761
1904.91
-1431.28
-463.074
-498.563
-1244.05
-39.9088
-1126.64
-705.833
-546.285
102.79
-1506.67
195.802
-137.081
1467.25
-2296.88
569.53
-1256
-2.02596
-1252.91
201.155
-3397.88
-227.387
-1000.17
-1211.55
-141.518
-614.382
-694.033
-827.307
-1.88599
-777.278
1013.95
-2247.56
-788.948
-451.455
-1997.83
137.254
-829.639
-1063.15
-499.106
594.38
-2497.37
221.519
-565.532
955.793
-3966.49
468.061
-1942.36
29.3311
-2094.53
278.313
-5275.25
-545.449
-1257.27
-2104.8
-291.157
-965.959
-1213
-1372.79
-463.479
-1701.66
-225.568
-3209
-1267.78
-135.697
-2980.27
349.988
-759.389
-1134.19
-624.084
1083.89
-3330.03
454.552
-857.482
476.793
-5338.37
290.475
-2536.82
47.0207
-2781.99
329.671
-6689.84
-838.71
-1288.42
-2696.55
-455.773
-1134.18
-1294.73
-1903.21
-1002.39
-2618.29
-1145.07
-3895.19
-1844.99
565.692
-3874.68
646.499
-612.517
-775.077
-507.932
1892.02
-3410.13
734.481
-1012.59
438.725
-5900.02
275.379
-2732.04
521.91
-2652.36
422.919
-5979.69
-889.284
-1248.21
-2706.43
-486.708
-1416.52
-1311.47
-1934.3
-1198.62
-3029.24
-1238.11
-3532.74
-1974.22
1292.22
-3593.96
931.17
-190.366
-232.527
17.9586
2126.66
-2402.38
942.512
-843.29
766.392
-4981.66
414.662
-2415.98
884.795
-1382.21
452.489
-2692.85
-678.399
-925.699
-1862.74
-379.099
-1676.38
-1005.13
-1338.68
-1012.69
-2869.67
-248.401
-1881.74
-1491.95
1680.2
-1917.19
1047.87
546.556
-163.616
255.95
2043.51
-930.002
1018.98
-369.818
1558.24
-2534.89
699.127
-1965.53
1103.29
110.654
381.237
616.784
-516.889
-640.682
-834.334
-332.164
-1838.86
-334.25
-503.487
-787.256
-2442.49
1935.81
-65.6599
-934.781
1886.46
-370.519
1000.26
1488.16
-639.165
104.864
1522.7
520.971
1167.66
314.155
2458.56
375.245
1080.43
-1546.09
918.093
1269.93
255.465
2763.31
-464.018
-242.448
-434.922
-273.769
-2077.49
435.05
114.581
-584.742
-2596.9
4853.96
1313.07
-683.475
2129.55
481.564
953.405
1566.76
-1414.82
50.2387
402.197
1641.43
1230.33
876.41
2708.25
2430.03
1314.75
-889.155
45.7682
1904.22
329.389
3587.96
-357.269
495.255
-592.148
-44.1531
-1751.76
69.8554
319.964
-288.933
-3395.85
6938.07
2096.51
-667.031
2109.68
749.194
772.937
289.867
-875.195
198.5
-1110.41
1899.9
1088.67
1098.23
2331.15
2854.35
1339.37
-190.012
-1241.66
1703.86
604.028
2657.15
-209.57
1178.38
-1055.18
235.666
-927.757
-1040.43
61.7994
167.256
-3834
7344.89
1755.89
-731.492
1484.21
337.478
428.018
-1421.03
561.635
562.839
-2614.04
1404.7
687.098
1060.29
1563.81
2221.29
1214.78
201.693
-2638.98
968.586
1030.03
672.488
-234.834
1443.25
-1271.88
353.329
55.439
-2172.89
-482.079
514.69
-4080.43
6332.72
714.773
-846.277
375.914
-627.462
104.471
-2471.73
1330.3
914.866
-3620.87
393.783
-82.7437
608.294
625.902
859.191
1073.78
-48.5358
-3634.19
-33.4409
1344.33
-1464.45
-458.269
1095.57
-1537.69
276.467
430.285
-3285.01
-1012.99
519.592
-4821.1
4478.18
-633.835
-831.017
-834.945
-1637.56
-35.155
-2751.4
272.584
909.723
-3615.37
-813.671
-948.975
-94.2805
-0.939044
-518.963
995.644
-719.295
-3630.43
-1199
1346.48
-3619.05
-718.022
484.701
-2252.39
78.2727
211.66
-4132.56
-1331.73
383.763
-5244.54
2647.92
-2142.05
-596.372
-1689.55
-2518.22
-130.787
-2521.92
-1416.36
664.995
-2426.6
-1588.15
-1469.13
-718.5
-231.751
-1189.54
873.944
-1336.07
-2593.24
-1881.73
1022.63
-4773.25
-952.52
-123.85
-2717.82
-188.074
-241.537
-4332.98
-1324.35
219.105
-4724.11
1367.72
-2938.9
-322.335
-1921.07
-2826.81
-255.329
-1298.08
-2353.02
319.029
-453.867
-1677.49
-1648.49
-1166.6
-119.776
-1270.57
825.095
-1490.52
-1018.33
-1727.35
684.644
-4130.1
-958.842
-852.609
-2372.67
-321.326
-616.828
-3837.15
-1002.41
203.446
-3484.23
653.606
-2540.36
-105.637
-1805.56
-2240.96
-216.289
216.396
-2525.45
105.726
1101.97
-1323.62
-1496.98
-1330.5
18.2366
-1012.86
631.369
-1243.47
278.219
-1207.07
439.355
-2734.18
-762.092
-1281.13
-1714.58
-314.599
-745.551
-2885.07
-569.424
215.037
-2099.34
139.725
-1627.91
107.162
-1447.99
-1361.04
-128.389
1144.86
-2299.84
-298.871
2114.05
-901.862
-1176.76
-1250.75
-86.7883
-418.24
310.102
-829.629
1213.27
-801.042
112.005
-1607.34
-472.719
-1286.68
-1262.54
-260.525
-807.916
-1653.5
-195.464
123.731
-843.104
-426.607
-862.684
199.935
-830.492
-662.023
-86.4096
1294.36
-2013.53
-681.982
2144.59
-509.219
-769.93
-821.672
-199.777
399.838
47.7782
-364.944
1402.48
-574.447
-122.502
-1011.59
-190.076
-878.701
-789.199
-165.694
-573.2
-740.374
28.7787
4.57877
-215.082
-663.694
-435.903
148.449
-265.324
-387.191
-80.7324
682.432
-1575.79
-484.448
1163.84
-201.525
-347.631
-335.329
-116.461
439.551
-14.4474
-83.6893
796.583
-296.241
-117.065
-503.189
-40.0103
-407.701
-324.013
-61.0585
-242.057
-284.365
65.921
-6.18669
-43.0184
-385.259
-189.164
68.5039
-49.7835
-195.89
-47.3238
221.016
-786.574
-99.8856
203.112
-39.1233
-67.7837
-60.2397
-23.9677
90.2394
-5.2091
-16.8262
141.42
-58.6496
-31.3712
-103.514
-5.7889
-86.9026
-61.9593
-9.35322
-48.945
-55.1698
13.0955
-7.39878
-21.3272
-81.7866
-39.6755
9.24566
-12.5677
-40.2172
-3.78618
-3.9938
-175.507
-5.05689
11.8253
-2.18791
-3.95451
-3.1923
3.63301
1.50276
0.91945
-0.990151
7.81647
-3.27139
-0.597087
-8.14368
0.203552
-6.71754
-4.95675
0.4077
-3.69782
-3.81336
0.994191
0.556292
-2.74196
1.85352
-3.80426
1.84178
-2.47
-3.33539
0.758163
-0.254059
-14.7782
0.137412
0.732038
0.555695
0.700622
1.2124
1.38374
1.14328
1.41949
0.618158
1.12836
1.0067
0.789996
1.27589
0.1735
0.0146358
0.819994
0.920624
0.00206194
0.994487
0.373299
0.962635
0.785983
2.1844
0.977605
0.35007
0.667059
0.505174
1.16097
0.11348
0.0406679
-4.09005
-6.18795
1.04812
6.22993
3.46391
29.1436
-7.12461
4.83925
-7.76314
-0.686746
4.84687
0.528569
3.96995
0.840674
-5.82536
-0.709112
-0.373125
-7.64194
0.617059
-0.874613
0.523352
0.522907
34.0187
-1.60349
-4.92736
-3.58596
-2.7573
-1.79491
-7.31977
-4.47559
-18.9331
-26.6922
4.88705
52.8942
60.5972
181.161
-36.1645
67.137
-24.8308
8.37219
17.5707
10.2064
11.4984
13.8516
-12.7178
14.4315
7.63204
-32.5057
18.0643
0.035394
35.7841
10.782
220.696
-16.4402
-14.0106
8.06662
-14.024
14.2592
-80.9981
-7.4747
-77.8566
-130.543
24.0029
136.178
162.873
421.329
77.4456
157.912
-36.965
-16.4766
29.5041
15.4487
-6.82269
47.3259
0.787757
-2.64097
22.1398
-62.3602
35.4986
-6.32095
102.295
19.5664
581.987
-69.6554
-36.0973
16.9536
-62.9473
17.6768
-315.943
-9.84859
-166.344
-250.962
8.69793
256.225
266.59
740.04
66.1549
257.195
-97.4565
-51.5462
30.8714
28.0565
-107.489
98.9921
-29.2619
-38.6043
58.0055
-127.081
-6.79814
-30.0237
158.858
11.7125
978.919
-178.881
-93.8724
2.41942
-147.147
24.7727
-673.157
-4.01594
-260.194
-352
-113.124
411.676
413.909
1108.76
-227.921
411.298
-214.261
-127.835
-60.2547
76.1183
-456.937
146.64
-61.629
-38.5875
106.861
-129.051
-102.208
-111.119
183.792
-151.328
1375.12
-410.13
-225.813
25.3381
-379.995
90.7012
-998.719
12.3751
-267.398
-274.649
-475.025
431.232
256.946
1088.14
-1001.71
422.619
-557.205
-144.336
-337.698
67.7267
-1188.98
36.6488
-254.657
-451.472
61.5938
-348.035
-288.633
-307.133
3.46204
-457.856
1150.54
-838.256
-417.146
82.7114
-755.286
187.351
-815.648
-131.509
-237.419
158.651
-1123.38
412.889
-298.42
882.322
-2745.51
384.294
-1126.48
90.5703
-752.79
37.1616
-2264.37
-171.056
-742.356
-1462.75
-31.8167
-830.284
-473.409
-675.866
-234.32
-587.088
381.759
-1390.17
-724.01
200.398
-1240.58
379.1
-402.8
43.7718
-228.77
1026.49
-2048.39
498.733
-939.133
346.438
-4688.33
244.203
-1832.16
486.069
-1457.08
11.1463
-3892.5
-462.531
-1115.53
-2550.14
-165.434
-1300.27
-675.994
-1183.52
-634.009
-908.647
-1052.47
-2160.96
-1131.3
636.638
-2000.84
661.114
9.1262
298.839
-253.253
1912.79
-3071.09
523.121
-1477.09
-60.1816
-6578.94
167.54
-2370.6
900.716
-2323.58
22.572
-5729.31
-679.076
-1437.12
-3467.85
-278.739
-1488.49
-1157.37
-1689.63
-869.306
-1131.6
-2412.31
-3081.21
-1510.18
1019.77
-2897.21
876.866
220.834
974.332
-333.368
2499.55
-3792.13
514.297
-1945.01
-261.648
-7890
28.0859
-2715.56
1322.88
-2922.47
-12.7396
-6772.18
-748.395
-1742.22
-4140.26
-354.527
-1702.48
-1516.04
-1962.36
-968.229
-1077
-3286.86
-3738.21
-1641.27
1218.85
-3407.77
967.413
306.059
1489.64
-83.7459
3037.07
-3621.71
199.639
-2137.88
-33.0892
-7492.14
30.8968
-2511.13
2016.82
-2720.78
7.11269
-5636.86
-571.664
-1944.35
-4001.28
-359.959
-1936.8
-1954.07
-1572.88
-595.553
-578.806
-3083.9
-3492.27
-1041.32
920.976
-2725.94
775.662
901.151
1202.42
215.132
2926.97
-2083.04
-194.883
-1903.64
773.07
-5101.5
359.021
-1788.4
2476.67
-1130.64
-117.697
-1430.46
-175.85
-1817.02
-2589.23
-220.808
-2065.55
-1516.58
-542.208
160.102
547.27
-1301.1
-1583.06
46.2418
399.76
-511.486
481.57
1412.67
50.0095
290.561
2103.12
-5.7084
-216.675
-1154.34
1722.79
-1080.77
699.852
-1085.63
2246.86
780.461
-256.4
2723.59
-31.9204
-1410.55
-1319.79
-172.972
-2405.12
-313.7
439.899
507.699
733.735
1930.62
748.31
686.203
363.691
1374.16
354.055
1425.91
-1670.29
133.311
685.162
1904.13
20.3017
-221.811
2143.31
2419.17
955.023
-507.655
1228.14
2270.74
-401.141
5304.37
-22.8201
-618.069
-790.424
-28.2995
-2484.36
280.839
1011.38
401.933
-594.439
4849.56
2701.68
676.458
750.7
2303.13
371.626
-125.801
-2551.11
144.328
-1347.88
2962.62
393.406
581.449
2153.79
3709.37
1103.65
215.7
-333.455
2853.5
-357.069
5830.35
231.843
492.85
-922.043
368.894
-1857.94
-360.2
1048.78
532.265
-1848.03
6407.85
3410.17
395.442
858.512
2406.23
262.986
-3226.65
-1077.09
366.776
-3569.96
2706.84
759.206
1239.48
2015.77
3044.93
1138.9
929.309
-2156.22
2166.54
90.1977
3759.41
538.609
1483.72
-1084.67
753.768
-594.437
-1108.18
494.681
1011.87
-2090.38
6596.77
2263.26
35.8633
356.09
1394.64
51.471
-5715.07
1167.46
822.078
-5389.35
1488.36
701.794
1362.36
1277.38
1329.7
902.251
1041.06
-3893.32
846.454
649.918
377.976
496.575
1819.34
-1344.25
817.23
442.778
-1746.23
-397.335
1133.21
-2289.53
5116.13
246.639
-441.755
-647.432
-267.666
-133.687
-6332.94
1956.51
1148.65
-6328.54
-86.9252
280.306
1063.13
317.66
-747.026
625.455
244.339
-5048.69
-567.596
1069.94
-2741.47
44.07
1496.59
-1621.76
543.71
605.245
-2323.89
-1221.5
575.325
-3606.89
2993.16
-1707.4
-888.264
-1454.67
-1915.8
-113.179
-5844.8
329.26
1167.79
-5933.32
-1478.73
-223.751
582.434
-212.682
-2325.31
625.298
-806.95
-5010.38
-1855.28
1155.82
-5296.1
-463.097
1110.03
-2378.14
204.311
239.101
-2830.61
-1670.71
3.94254
-4723.41
1629.15
-3364.59
-987.937
-1599.34
-3140.06
17.1916
-4340.76
-1270.4
1177.89
-4439.31
-2009.33
-686.881
-93.9702
-275.953
-2908.86
673.842
-1615.21
-3879.95
-2144.58
993.365
-5554.55
-906.509
462.891
-2673.2
-158.302
-347.949
-2919.27
-1590.84
-293.341
-4591.27
993.029
-3659.86
-709.505
-1534.6
-3171.49
82.7952
-1871.96
-2101.22
1053.2
-2410.24
-1744.03
-1024.67
-747.312
-60.0821
-2843.79
726.053
-1780.69
-2321.9
-1511.49
738.507
-3803.38
-1060.6
-393.896
-2141.26
-361.443
-675.437
-2504.42
-1207.45
-215.795
-3449.34
744.52
-2631.6
-376.716
-1489.56
-2159.69
150.973
298.186
-2161.97
976.428
-715.469
-1212.24
-1024.61
-1059.02
-31.777
-2225.15
535.04
-1488.06
-1005.55
-803.85
546.554
-1996.97
-975.163
-873.416
-1595.23
-414.642
-826.934
-1819.54
-776.572
-127.535
-2151.16
456.389
-1453.31
-98.4186
-1228.66
-1101.22
153.351
1645.34
-1787.85
495.05
497.849
-702.385
-820.031
-962.691
-185
-958.456
215.455
-917.872
13.7606
-415.488
258.531
-924.846
-652.996
-833.943
-1062.32
-332.546
-716.343
-996.616
-372.007
-73.4408
-1048.38
25.6679
-663.041
60.464
-746.297
-456.805
74.6008
1722.81
-1476.22
-133.519
899.294
-348.117
-481.592
-528.734
-156.998
-64.8106
32.19
-334.243
524.195
-302.224
-15.2852
-574.04
-211.93
-528.236
-579.181
-139.831
-421.789
-424.403
-70.8638
-17.7364
-273.892
-296.225
-319.446
71.473
-297.484
-214.499
-11.2454
604.633
-1023.36
-234.526
572.149
-128.063
-201.44
-185.415
-74.3576
173.833
-10.868
-66.8653
393.703
-170.072
-64.764
-298.196
-19.9797
-226.652
-207.092
-28.0229
-157.901
-164.42
27.8754
-5.41958
-63.9965
-239.427
-131.692
36.7529
-64.5394
-104.885
-22.3926
20.0015
-519.645
-60.9076
123.306
-24.6443
-42.7001
-34.768
-13.3496
53.6842
-2.18787
-16.177
85.0559
-35.0339
-19.8889
-61.7943
-4.67066
-51.0091
-34.8842
-6.66555
-32.3191
-31.5277
7.61966
-8.94299
-29.1137
-52.0886
-23.9991
2.62758
-8.80135
-24.049
-1.32304
-33.0559
-131.889
-0.761037
-0.441159
-1.97234
-4.72714
-3.71113
-0.429046
-1.50348
-0.351062
-1.32041
-0.236499
-2.1227
1.43129
-4.27918
0.0170658
-5.27497
-4.84966
0.416774
-1.97171
-4.57012
0.438571
-0.966057
-7.04727
-3.24645
-1.09306
0.697221
-4.93013
-2.01379
-0.0615845
-8.79507
-13.244
0.138969
0.196278
0.1862
0.956428
0.382768
1.65243
1.34682
0.875035
0.946813
1.04543
1.14923
0.75963
1.05287
0.889399
0.200734
1.48827
0.0021666
0.224826
0.421556
0.777547
1.37427
1.88279
2.66513
0.710798
0.0917744
-0.537624
1.0789
0.448227
1.29431
0.878394
3.99846
-4.10978
1.8711
13.2228
16.8682
38.0379
-6.37741
16.9391
-5.63442
2.13999
5.16254
5.42444
6.61343
1.75661
-1.83706
4.929
1.52946
-12.4639
6.6559
0.726428
7.54773
-2.36562
51.6975
-0.440495
-1.86557
4.40692
-0.251505
6.17033
-10.7701
-11.2245
-7.82894
-26.9934
6.72315
72.7665
82.2406
199.588
-40.8011
85.8009
-30.7798
11.2833
18.0737
17.0094
14.5401
14.7797
-5.54622
12.7011
10.0517
-52.3227
28.9651
2.3383
38.46
-3.33235
249.282
-15.6053
-12.582
29.9473
-11.4147
26.4717
-97.057
-27.2018
-73.805
-98.3358
14.2454
148.946
159.565
386.157
-3.81618
161.806
-44.6975
0.214733
26.041
19.1299
-11.6461
54.559
-4.42842
-13.3041
34.5774
-82.8697
36.011
-1.77601
86.3624
12.1068
495.317
-60.4909
-34.9694
45.0918
-51.0333
38.8673
-321.199
7.55214
-165.869
-150.416
-20.9183
304.441
261.395
635.777
-174.569
254.989
-127.006
-3.41633
11.1128
14.8736
-132.548
104.825
-2.5893
-55.7307
78.1172
-152.854
23.4636
-35.2041
89.8327
-58.3692
757.168
-144.248
-115.175
143.162
-130.577
91.1769
-679.676
72.2876
-104.888
-110.865
-225.915
444.574
198.213
682.654
-947.506
313.869
-349.542
-10.1922
-117.786
24.0882
-546.727
65.2887
-70.1944
-433.019
103.29
-362.633
-99.9856
-173.78
-10.1339
-261.505
708.606
-353.715
-265.169
338.72
-310.191
241.86
-660.483
269.796
72.5816
147.826
-662.696
476.88
-227.686
414.727
-2236.22
210.644
-798.375
102.171
-389.246
-22.4705
-1274.46
-131.993
-333.47
-1307.5
25.2247
-775.302
-315.719
-446.37
-281.39
-459.278
142.412
-721.052
-470.181
567.115
-606.375
410.846
-82.1583
567.998
147.295
800.531
-1373.22
545.735
-954.833
-23.4602
-4216.18
85.6271
-1394.69
450.132
-848.904
-116.348
-2454.18
-405.959
-761.935
-2625.06
-85.8429
-1319.12
-449.389
-908.217
-599.849
-549.857
-890.474
-1223.83
-842.555
991.313
-1115.79
703.852
634.49
1247.23
134.47
1837.75
-2307.64
699.297
-1686.27
-684.931
-6123.75
-139.268
-1970.59
1058.02
-1606.18
-222.084
-4145.05
-629.312
-1065.77
-3867.76
-188.813
-1697.98
-675.244
-1415.59
-899.084
-419.122
-2567.1
-1990.62
-1179.64
1601.19
-1844.59
971.619
1052.23
2230.93
18.7894
2950.73
-3274.38
532.397
-2431.15
-1089.44
-7728.27
-308.917
-2214.08
1887.51
-2539.51
-365.13
-5952.47
-672.802
-1433.28
-5075.18
-258.279
-1817.2
-1222.35
-1758.84
-771.078
358.974
-4078.53
-2999.49
-1216.32
1741.64
-2586.16
968.594
1322.69
3284.21
-23.598
3802.62
-3766.09
19.8731
-2945.36
-1139.1
-7990.39
-382.43
-2068.84
2865.12
-3152.87
-502.418
-6715.16
-473.982
-1936.49
-5874.78
-259.562
-2066.16
-2095.45
-1631.64
-230.549
1320.5
-4691.38
-3753.18
-660.115
1251.56
-2703.12
671.174
1362.02
3393.13
39.8757
3858.4
-3369.63
-1015.92
-3255.75
-695.171
-6164.55
-349.881
-1666.33
3529.45
-2944.93
-652.661
-5379.47
-288.214
-2491.96
-5813.62
-377.28
-2575.56
-2541.25
-989.756
543.804
2351.79
-3903.92
-3662.08
412.303
-121.412
-1852.67
-1.45345
1433.41
1269.98
22.6193
3042.2
-1679.08
-1735.07
-3018.29
-155.055
-2608.09
-255.635
-1141.2
3482.47
-1314.43
-947.232
-1102.63
-174.295
-2571.56
-4456.76
-479.421
-3237.82
-1470.67
-44.077
992.508
2851.28
-1985.84
-1704.96
1335.93
-1062.07
230.827
-427.457
807.902
-2247.67
-29.5712
1471.22
716.671
-1574.33
-2133.93
99.9475
1600.52
-133.309
-646.536
2409.42
941.719
-1161.47
3507.74
-228.28
-1912.68
-3000.64
-442.357
-3704.39
7.46093
757.5
674.853
1560.35
771.627
1276.86
1445.29
-740.624
2143.05
-340.328
-808.918
-4728.12
-96.2797
-774.277
2792.6
-977.016
-1024.99
91.9081
3986.24
8.96237
-23.6175
623.321
2747.08
-1302.77
6510.33
-105.467
-844.488
-2070.69
-90.9818
-3400.94
322.535
1210.04
189.058
-590.553
2825
3749.43
973.013
-77.1626
3229.07
-102.223
-4072.79
-4502.81
71.8275
-3352.59
3484.91
-193.396
92.0385
280.752
3800.97
287.643
803.14
-1358.2
3071.41
-1080.83
6463.48
420.102
577.865
-1750.94
536.054
-2210.44
-303.179
1119.56
379.883
-1648.74
3899.17
4052.78
542.831
170.737
3102.92
-8.9555
-7925.01
-1788.3
347.579
-5725.27
2354.28
477.908
902.851
478.012
1583.47
301.253
1443.36
-3200.23
1604.53
-518.814
2711.97
963.236
1643.89
-1818.8
1003.2
-484.449
-679.622
341.422
1005.22
-837.287
3386.31
1652.46
123.173
-390.668
1408.4
-163.113
-10009.7
1278.3
712.247
-7309.53
585.44
844.515
1201.98
85.3081
-908.791
58.6082
1159.07
-4772.52
-94.65
40.5021
-1561.93
884.098
1882.56
-2129.91
978.682
312.552
-854.104
-754.476
902.437
-932.128
1945.16
-1010.76
-632.045
-1068.59
-714.763
-189.208
-9837.39
1941.05
931.869
-7750.15
-1102.34
823.642
1239.3
-543.195
-2727.57
-188.181
59.961
-5687.92
-1601.78
502.728
-4947.8
302.971
1804.18
-2194.08
567.049
391.858
-1021.94
-1588.3
-60.7817
-2653.86
413.019
-3153.34
-1299.03
-1185.47
-2667.41
-65.5707
-7881.64
317.968
1145.24
-6950.22
-2127.55
614.062
1058.07
-650.191
-3914.2
-34.806
-1076.7
-5481.27
-2447.2
755.54
-6570.06
-369.158
1564.77
-2285.58
128.188
113.094
-1259.19
-1882.13
-820.701
-4211.27
6.91438
-4244.22
-1434.18
-837.013
-3649.13
211.688
-4845.04
-1079.14
1426.51
-5220.95
-2075.31
131.428
370.845
-212.831
-4329.87
365.455
-1726.03
-4223.41
-2005.63
809.629
-5155.11
-812.318
837.801
-2134.11
-171.292
-358.01
-1367.78
-1593.26
-838.915
-4033.01
404.545
-3589.44
-987.403
-737.929
-2955.23
405.816
-1828.97
-1437.87
1560.58
-3148.51
-1566.3
-401.861
-459.591
3.11388
-3902.51
513.244
-1786.94
-2671.87
-1086.69
659.508
-2748.39
-1054.37
-83.9203
-1625.55
-409.389
-596.087
-1038.67
-1162.48
-524.298
-2577.74
551.258
-2227.26
-456.428
-878.352
-1652.64
435.923
1144.89
-1148.55
1510.92
-1550.4
-994.028
-564.155
-876.837
-40.7397
-2823.65
348.913
-1507.15
-1488.05
-386.136
505.178
-1001.75
-1073.18
-570.154
-1219.36
-514.486
-733.085
-604.658
-799.804
-337.48
-1446.67
567.47
-1081.96
-151.156
-788.002
-674.586
326.825
2639.81
-830.034
1064.44
-407.772
-514.185
-460.365
-760.766
-187.191
-1400.25
129.245
-912.296
-578.789
-73.3244
311.685
-174.173
-752.781
-536.214
-776.005
-404.383
-609.853
-213.002
-433.75
-161.167
-615.834
326.817
-403.286
30.2656
-508.678
-139.214
176.266
2520.05
-653.371
271.367
94.8038
-217.107
-232.035
-335.583
-110.931
-380.028
15.7578
-321.719
-25.046
-73.4065
58.8744
-124.055
-244.926
-275.943
-329.556
-148.641
-307.126
-75.7687
-126.366
-47.9727
-144.077
-22.1538
-166.786
30.6419
-227.869
-38.7543
30.7481
786.75
-491.674
-69.9001
160.664
-64.5535
-80.5517
-76.8976
-44.3459
27.4604
-10.0337
-48.7287
112.201
-69.1338
-33.4774
-120.786
-17.5662
-103.318
-75.6809
-17.7817
-88.1418
-36.9654
2.77329
-16.6118
-22.1693
-115.001
-66.422
7.16104
-46.6641
-34.9877
-7.00679
-24.5958
-257.568
-15.3781
26.4317
-13.6651
-22.6717
-20.2462
-10.285
10.1287
0.272187
-13.6729
16.2069
-14.7194
-2.27603
-24.888
-4.48521
-26.1592
-14.1111
-3.87399
-17.1713
-20.8425
0.310099
-7.16868
-26.6485
-27.2298
-10.0266
-0.199264
-12.67
-11.9872
-0.456145
-37.0563
-69.5437
1.57297
-0.0684342
1.34817
-0.119896
-0.400777
0.441679
0.715975
1.92262
-0.13933
-0.425681
2.23097
1.0134
4.42709
0.499644
0.687623
1.34366
0.699515
-0.738807
-1.87886
0.399632
-0.0218464
-3.41178
1.02226
3.13997
0.905439
0.0933059
2.54653
-0.0352556
-3.91133
-2.28744
0.118849
1.01979
0.886234
0.222492
0.908054
1.92303
0.796062
0.916526
1.07512
0.550755
1.1328
0.79085
1.65787
0.959819
-0.331487
1.60221
0.31255
0.479286
0.935808
0.970793
1.15402
1.67736
2.06197
0.534163
0.132706
-0.0728927
0.481078
0.088878
0.510842
0.171239
2.85088
-2.62463
1.63956
10.0415
12.0817
31.0187
-4.47172
13.6013
-2.97875
2.42017
2.6612
3.95265
3.44848
3.03609
0.550364
2.50086
2.38779
-5.97496
2.1252
1.54145
7.2616
-2.18514
40.9202
-1.72701
0.171539
2.59283
-0.127902
4.36071
-9.88249
-7.67915
4.09521
-18.7569
4.67132
63.114
70.4308
155.717
-34.4708
70.9063
-25.4306
8.61478
13.9538
19.0551
12.5806
13.0633
3.55294
11.5466
9.48926
-43.651
24.1663
2.33127
28.9311
-10.7737
196.611
-11.0999
-6.74964
31.9063
-6.26436
26.9524
-70.9419
-26.1405
-46.5773
-63.6176
3.74123
145.767
144.012
309.048
-95.545
142.652
-50.2967
13.6728
14.8455
16.9705
-22.0192
39.2559
-3.25876
-34.0984
31.1645
-99.9571
36.9266
-5.40345
50.3912
-19.0809
381.781
-37.3536
-36.8925
85.2717
-39.8428
58.269
-287.207
18.2322
-98.1249
-78.6804
-51.4458
324.724
210.54
447.709
-373.282
191.522
-144.13
13.9164
-25.9949
2.84461
-192.409
77.6469
33.751
-154.486
81.8112
-190.673
2.45843
-51.3935
-8.43235
-172.104
489.197
-114.742
-133.301
277.927
-124.501
145.426
-608.542
170.704
116.148
53.7832
-286.362
432.84
-22.4232
243.307
-1362.74
184.445
-434.343
48.4909
-157.335
-4.81457
-599.088
-37.2941
-21.0351
-823.656
80.832
-519.048
-226.035
-226.86
-169.897
-409.181
220.991
-303.492
-253.361
583.218
-250.336
328.641
-132.053
619.572
423.762
511.669
-733.101
475.061
-654.676
-239.868
-2868.99
24.9332
-863.288
302.78
-394.848
-86.2859
-1229.18
-283.98
-278.483
-1975.22
-9.49898
-966.182
-378.608
-547.955
-390.79
-261.956
-590.944
-578.907
-417.993
950.115
-428.924
533.66
925.436
1501.55
493.731
1249.23
-1381.21
655.761
-1361.12
-695.851
-4563.71
-145.823
-1282.96
763.203
-852.23
-235.638
-2388.66
-524.52
-597.354
-3292.98
-112.387
-1309.11
-468.372
-1016.35
-584.506
68.2777
-1576.88
-1043.06
-730.683
1544.85
-907.48
810.736
1821.59
2914.58
327.317
2523.37
-2207.2
790.21
-2083.78
-1331.72
-5854.91
-402.123
-1500.03
1691.34
-1670.86
-463.335
-4090.21
-625.802
-759.301
-4578.73
-176.415
-1418.16
-585.801
-1433.72
-562.874
932.143
-3126.52
-1838.08
-876.153
2215.27
-1596.67
978.892
2410.97
4584.26
194.907
3832.52
-2956.17
513.653
-2787.98
-1902.15
-6451.15
-715.524
-1314.24
2910.66
-2617.65
-734.534
-5714.68
-474.813
-996.911
-5913.38
-201.975
-1499.74
-1244.97
-1552.93
-100.663
2387.85
-4560.18
-2853.38
-501.441
2272.47
-2124.52
730.59
2846.92
5928.32
111.309
4766.66
-3274.85
-571.55
-3421.89
-2073.31
-5287.11
-835.136
-854.531
4114.5
-3319.58
-931.609
-6421.99
-239.456
-1565.52
-7053.75
-296.655
-1925.65
-2370.45
-1214.27
813.255
3710.94
-4870.64
-3757.98
476.594
1145.19
-2175.35
-10.8744
2965.7
5054.9
-147.521
4281.4
-2915.85
-1972.73
-3870.08
-1958.84
-2708.27
-1122.14
-719.948
4409.97
-3254.55
-1277.81
-5384.82
-300.629
-2356.65
-7159.2
-667.117
-2913.12
-2145.71
-672.897
1266.25
4456.91
-4367.85
-3860.59
1430.15
-699.31
-1588.19
-920.663
2040.14
650.781
-424.563
2706.64
-1365.79
-2835.95
-3809.91
-2084.49
757.299
-1325.75
-704.7
3508.68
-1695.76
-1621.96
-1506.35
-543.616
-2660.76
-5914.14
-948.954
-4032.09
-818.888
-43.0594
974.571
3518.17
-3281.34
-1829.29
1763.25
-1798.03
116.533
-1256.87
-381.628
-4853.43
-622.821
411.261
1017.5
-2554.84
-3075.83
-2432.98
3375.57
-1373.63
-535.208
1674.85
804.632
-1930.79
3289.52
-626.728
-2107.7
-4180.02
-783.332
-4394.7
380.371
588.056
-19.2236
1051.17
-2013.06
1673.13
1273.66
-1362.43
2054.38
-904.169
-4029.87
-7227.33
-609.43
-2119.58
2846.82
-1747.74
-1997.74
-2528.92
4121.99
-1217.33
5.88236
-360.747
2640.76
-2043.85
6391.12
-320.797
-1057.44
-2857.66
-253.959
-3812.28
498.355
982.867
-688.289
-1118.64
-955.43
4177.66
570.194
-627.883
3285.53
-463.398
-8014.66
-6023.7
-254.023
-4648.09
2728.08
-578.544
-695.275
-1751.5
2069.16
-825.442
676.482
-2151.54
2340.93
-1695.71
5111.6
395.633
262.852
-2394.06
420.467
-2415.82
214.685
718.724
-343.345
-1177.27
-224.159
3437.5
94.9846
-358.758
2729.61
-232.17
-11249.5
-2550.83
89.4267
-6728.04
1141.78
522.388
281.36
-930.88
-968.399
-693.944
1222.81
-3576.73
519.384
-1113.23
532.845
1098.85
1365.24
-2852.98
921.08
-789.257
71.4519
-163.233
493.347
587.768
-347.049
349.394
-303.896
-643.674
744.656
-304.042
-12589.5
1336.93
207.393
-7335.11
-678.274
1244.37
864.028
-945.534
-2867.4
-931.165
848.663
-4490.66
-1315.55
-555.537
-3962.99
935.864
1753.69
-3107.66
765.376
-66.219
71.6581
-1229.68
212.16
321.395
-1130.65
-2464.86
-1123.88
-601.286
-1643.36
-290.012
-10939
2335.27
300.562
-7013.85
-2027.9
1501.4
1297.68
-1089.07
-3667
-1044.9
-193.973
-4869.9
-2631.68
-118.122
-6933.3
263.327
1949.81
-2826.69
250.506
122.367
124.489
-1847.74
-854.34
-1599.95
-1521.77
-4338.22
-1735.29
-94.2766
-3513.23
-169.155
-7422.54
1206.49
739.06
-6078.85
-2244.31
1239.97
1208.71
-764.566
-4080.66
-607.045
-989.222
-4481.69
-2593.34
237.641
-6496.43
-255.249
1755.28
-2220.38
-37.4344
-6.76352
-129.633
-1730.88
-1282.59
-2997.63
-997.579
-4272.29
-1516.86
220.438
-3562.35
178.151
-4051.89
-7.01738
1258.75
-4465.44
-1825.04
514.687
418.682
-222.137
-4143.61
-37.0731
-1427.86
-3322.23
-1696.02
408.437
-4014.37
-675.587
910.224
-1684.54
-284.188
-252.405
-262.605
-1299.72
-984.254
-2512.39
-178.263
-3074.82
-823.202
-32.1768
-2345.02
380.758
-655.5
-214.321
1683.42
-2737.18
-1258.37
-76.5237
-429.354
24.7214
-3651.71
237.172
-1483.43
-2102.98
-696.456
442.394
-1554.68
-1003.51
-11.3608
-1255.56
-512.884
-458.925
-9.40057
-964.577
-475.809
-1141.81
467.805
-1694.36
-271.384
-404.936
-1004.12
415.664
2374.35
166.324
1740.81
-1463.11
-776.232
-282.038
-848.269
-72.8609
-2667.58
152.379
-1306.93
-1259.63
-75.2315
392.419
-127.313
-1087.47
-421.216
-964.905
-614.994
-591.252
310.648
-720.437
-278.535
-285.087
648.347
-734.494
-19.6223
-461.113
-206.759
309.431
3884.93
284.976
1345.63
-614.452
-396.093
-260.781
-716.172
-185.009
-1532.62
48.4435
-852.037
-645.233
138.966
294.37
359.471
-797.54
-357.948
-650.169
-473.499
-548.587
362.071
-436.807
-136.195
78.3578
477.117
-218.649
76.8372
-328.722
137.855
170.715
3342.84
82.9731
489.069
-239.822
-150.699
-104.503
-242.507
-80.5053
-513.053
-12.0588
-275.407
-218.518
45.2498
81.6255
156.435
-265.423
-152.695
-161.764
-179.848
-201.45
244.501
-139.37
-26.6395
180.533
106.868
-95.455
50.5312
-183.537
78.2787
28.35
1221.92
-79.3627
2.63531
-15.9267
-28.1837
-14.151
1.54014
-3.73983
-14.6223
1.87634
-20.0169
-5.14714
-21.2658
-11.9646
-27.3563
-8.87345
-19.2152
28.3725
-12.7997
-11.671
33.1836
-2.91546
-3.47927
27.7755
-24.3517
-35.3536
4.79402
-33.0223
-6.11115
-5.94417
13.5047
-85.4517
-7.90606
5.61589
-5.84513
-7.42498
4.52693
1.00046
14.1767
7.61626
-3.41468
-0.446695
-7.36678
1.50309
-11.6275
-0.564228
-0.78512
17.9421
-0.897957
5.8624
-15.61
-0.452781
-0.860055
-18.8974
1.94828
-6.91975
-1.80433
-6.76195
-8.04804
-0.56344
-14.7845
-28.7756
1.7165
-0.761783
2.19574
0.417596
2.63863
1.76269
0.477231
3.1466
0.744651
-0.862051
2.20211
1.07043
5.88865
0.902659
1.17558
5.78239
0.857913
0.536407
-2.97564
1.04224
1.18786
-4.31177
3.52618
3.59595
0.0211718
0.496989
3.40432
0.457253
-5.32746
-0.738526
0.772066
0.0460155
0.040553
0.861218
0.825478
0.732082
0.841033
0.482443
0.475769
0.1642
0.304668
0.782624
0.112126
0.357161
0.788342
0.738583
0.655283
0.0992546
0.199064
0.576922
0.247295
0.578999
0.199017
0.611569
0.21755
0.00563091
0.492019
0.74615
0.203037
0.88841
1.96864
-1.41734
0.350882
5.95467
5.93955
16.0709
-2.00436
6.57345
-1.45621
1.32557
1.82529
1.40947
1.21772
1.85369
0.304653
1.73182
2.18754
-1.97929
0.937897
1.34491
3.89333
-2.65719
21.776
-1.05006
1.31369
2.65447
0.95114
3.86134
-4.12196
-3.98221
7.87348
-11.2231
1.54909
36.7154
43.5406
86.3992
-25.1073
43.0634
-12.3728
5.45531
4.74106
14.7856
3.10082
7.17857
4.45279
4.78179
6.60497
-26.1423
12.3323
2.12483
18.9689
-8.82507
109.349
-7.67992
-0.94969
20.9858
-3.30977
19.0696
-37.9301
-13.7238
-27.5097
-48.7151
-2.28752
113.168
104.276
189.915
-102.343
92.918
-32.1455
6.93692
-2.39334
10.0802
-39.1305
27.95
10.3359
-46.9572
26.4666
-72.4352
18.6933
-6.98697
20.556
-29.2485
222.724
-27.7101
-31.7519
90.195
-31.1552
52.5398
-241.627
47.7561
-25.3848
-55.1641
-64.9225
280.531
116.237
191.295
-495.374
104.957
-130.378
-2.60044
-54.712
-1.33508
-242.831
56.537
71.6396
-286.311
87.0142
-178.89
-104.903
-65.744
-69.598
-231.164
168.605
-96.0201
-118.472
332.869
-116.933
151.489
-468.907
353.604
314.871
133.079
-297.538
329.615
-278.553
-216.751
-1549.68
38.0211
-420.827
39.8207
-158.078
-17.5228
-589.829
-128.777
28.8861
-1094.41
57.7936
-458.138
-398.157
-276.834
-221.506
-344.758
-250.479
-238.818
-185.317
651.638
-187.954
323.519
530.544
1209.42
690.497
508.604
-705.631
400.71
-914.583
-753.455
-2974.45
-105.681
-704.489
270.173
-378.237
-123.636
-1168.37
-356.965
-145.236
-2187.52
-15.0592
-699.461
-510.751
-611.881
-294.616
150.485
-1043.07
-500.233
-272.699
1046.23
-309.532
523.661
1919.95
2662.41
755.882
1261.86
-1232.01
612.816
-1553.69
-1302.42
-4112.61
-324.484
-817.784
796.931
-820.782
-322.353
-2211.06
-525.175
-284.934
-3303.58
-88.7531
-721.18
-511.258
-1024.97
-278.187
982.388
-2009.61
-923.159
-435.397
1663.69
-681.665
726.132
3126.38
4637.17
541.849
2498.48
-1864.01
843.217
-2061.64
-1994.33
-4464.46
-736.565
-685.485
1828.28
-1627.72
-628.429
-3713.41
-520.778
-167.264
-4401.8
-161.455
-630.771
-311.667
-1329.25
-120.75
2288.89
-3352.31
-1683.04
-408.285
2464.54
-1285.2
748.087
3943.1
6659.76
432.249
4125.18
-2417.96
489.121
-2539.18
-2658.76
-3963.66
-1129.53
-111.083
3295.05
-2599.73
-867.626
-5213.23
-264.633
-121.507
-5490.66
-193.525
-504.326
-1042.31
-1281.03
556.116
3908.73
-4554.93
-2702.32
184.039
2483.54
-1765.68
269.431
4873.58
8051.73
191.679
4968.63
-2684.75
-686.607
-3009.93
-3041.06
-2213.66
-1425.44
410.972
4371.18
-3397.84
-1102.25
-6140.21
-80.9134
-530.242
-6401.21
-385.877
-841.388
-1775.19
-952.166
1343.97
5131.75
-5025.32
-3698.33
1097.6
1224.57
-2038.37
-650.784
4854.84
6419.05
-348.072
3686.31
-2519.54
-2188.49
-3500.83
-3599.99
433.437
-1970.4
273.412
3862.71
-3565.43
-1454.65
-5793.25
-337.134
-1292.65
-6577.25
-858.765
-1907.82
-1218.72
-684.825
1264.02
4939.81
-5455.64
-3943.72
1592.76
-702.007
-1970.18
-1527.22
2324.74
691.578
-872.782
1528.53
-1237.93
-3104.22
-3713.81
-4251.94
2712.7
-2272.93
-146.495
2279.34
-2100.21
-1811.06
-2436.59
-669.688
-1833.25
-5460.33
-1069.22
-3184.04
-221.647
-301.922
399.812
2854.41
-5656.04
-1846.15
1395.62
-1864.56
-553.793
-1645.33
-2286.2
-5543.21
-1206.71
-983.989
866.23
-3051.34
-3457.76
-4856.85
3389.13
-2364.37
-313.479
218.227
528.642
-2221.77
2495.58
-716.517
-1978.34
-3537.71
-810.455
-3587.79
402.264
275.269
-954.703
17.3863
-5841.3
1866.79
586.099
-1857.85
1571.91
-1118.82
-7047.33
-7919.04
-970.96
-3164.54
1964.48
-2019.19
-2469.05
-4418.77
2142.11
-2174.04
-102.124
-1391.72
1908.27
-2299.76
4818.76
-332.53
-1232.31
-2186.75
-326.334
-3097.57
706.799
540.363
-1591.65
-1301.49
-5146.98
3584.56
-98.1422
-1155.34
2592.88
-616.615
-10039.1
-6240
-417.283
-5172.8
1433.74
-451.765
-1134.89
-2787.81
-1097.85
-1691.25
345.329
-2498.6
1382.72
-1974.03
3136.93
487.175
-1.44588
-2136.14
311.366
-2074.67
872.969
210.217
-988.275
-145.766
-3815.37
2249.34
-445.332
-668.766
2030.7
-335.037
-12184.5
-2192.23
-169.04
-6143.68
0.0778093
1104.23
89.0924
-1480.41
-3188.68
-1463.51
904.839
-3074.24
-407.879
-1367.49
-1303.49
1094.55
1326.74
-3033.09
690.846
-805.196
804.532
-667.801
-37.4684
1739.77
-2740.03
-805.067
-824.148
-166.771
-7.23472
-426.615
-12217.5
2379.09
-379.798
-5706.9
-1537.47
1989.52
965.613
-1289.09
-3200.17
-1719.39
747.808
-3209.27
-2364.66
-927.511
-6084.57
765.072
2022.61
-3695.22
330.513
2.74452
887.647
-1600.76
-315.358
1571.87
-2416.17
-3680.91
-1552.22
598.381
-2704.42
-604.982
-8906.9
4179.45
-195.816
-4888.47
-2077.26
2079.31
1319.68
-1145.86
-2553.18
-1657.98
62.2812
-3036.37
-2945.21
-570.308
-7254.83
159.344
2140.16
-3380.52
-116.599
-27.7088
770.399
-1783.94
-1041.36
-129.556
-1799.27
-4489.9
-1744.53
1213.43
-3688.86
-471.713
-5255.79
3120.07
353.336
-4116.87
-1763.17
1518.86
1127.4
-586.162
-2513.26
-962.921
-384.474
-2561.89
-2329.23
-246.559
-5339.18
-90.5292
1792
-2357.49
-182.155
-77.4148
383.956
-1280.41
-989.999
-955.087
-935.859
-3696.11
-1028.29
1077.12
-2864.19
-105.826
-2406.77
1780.23
1003.53
-3150.49
-1348.36
559.305
251.866
-67.4146
-2641.44
-293.76
-744.132
-1871.57
-1381.44
-37.1896
-2819.43
-469.772
818.651
-1713.73
-352.619
-153.955
93.1762
-886.451
-459.032
-453.918
19.4922
-2536.99
-264.533
280.188
-1573.19
75.5716
645.314
1381.26
1574.94
-2065.58
-953.923
8.01171
-528.433
151.57
-2500.31
41.4156
-1023.28
-1268.56
-443.345
135.696
-690.485
-908.663
-85.7696
-1185.68
-611.178
-353.135
472.375
-743.205
-95.3163
408.633
794.908
-1361.56
83.0114
-265.289
-473.767
219.443
3521.56
1250.39
1724.62
-1118.48
-635.666
-201.792
-856.646
17.0077
-2136.95
60.7213
-1039.44
